<?xml version="1.0"?>
<opencv_storage>
<opencv_ml_svm>
  <format>3</format>
  <svmType>C_SVC</svmType>
  <kernel>
    <type>RBF</type>
    <gamma>8.9999999999999997e-02</gamma></kernel>
  <C>10.</C>
  <term_criteria><iterations>1000</iterations></term_criteria>
  <var_count>15</var_count>
  <class_count>3</class_count>
  <class_labels type_id="opencv-matrix">
    <rows>3</rows>
    <cols>1</cols>
    <dt>i</dt>
    <data>
      19 181 182</data></class_labels>
  <sv_total>36</sv_total>
  <support_vectors>
    <_>
      -1.40950382e+00 -5.65376163e-01 1.65707141e-01 -1.66279241e-01
      -2.72075921e-01 -3.89748454e-01 -4.02258784e-01 2.49443591e-01
      -6.35142699e-02 3.03240889e-03 -2.58335441e-01 -2.09625930e-01
      4.81004745e-01 4.59682852e-01 1.30308539e-01</_>
    <_>
      -1.44970202e+00 7.77759627e-02 5.99939466e-01 -3.84424508e-01
      -8.05844843e-01 4.23193008e-01 1.05135894e+00 7.91293561e-01
      -1.49147719e-01 1.30316943e-01 -7.06548095e-02 -3.22727556e-03
      -1.50044411e-01 -3.41994703e-01 2.60269176e-02</_>
    <_>
      -1.46109176e+00 7.96372071e-02 5.93591630e-01 -4.14626658e-01
      -8.43382478e-01 4.55433249e-01 1.08081079e+00 8.07927430e-01
      -1.48209482e-01 9.97195989e-02 -5.45611605e-02 -4.77936380e-02
      -1.38104573e-01 -3.42950374e-01 3.19451913e-02</_>
    <_>
      -1.35228908e+00 -1.45826548e-01 5.40051818e-01 -5.54260433e-01
      -3.73132735e-01 2.56375104e-01 7.72578299e-01 4.41841900e-01
      1.64645482e-02 -1.04265288e-01 -1.29518732e-01 3.77962768e-01
      -4.67331856e-02 -2.17704207e-01 1.47204369e-01</_>
    <_>
      -1.42570794e+00 -6.09789848e-01 1.35299563e-01 -2.26166964e-01
      -2.32394159e-01 -2.21721604e-01 -3.77919406e-01 2.52280951e-01
      -3.57246339e-01 4.61804159e-02 -2.17789218e-01 1.92418873e-01
      3.37387860e-01 5.84505975e-01 2.50568211e-01</_>
    <_>
      -1.13548207e+00 -1.95756570e-01 -9.33494885e-03 -4.54408497e-01
      -1.92408428e-01 2.08577380e-01 1.24487720e-01 -9.64205787e-02
      -3.89429927e-01 1.95458815e-01 6.13237500e-01 -3.63879442e-01
      -1.96269602e-01 2.64151543e-01 -2.42895320e-01</_>
    <_>
      -1.86811876e+00 -1.56879202e-01 2.36893386e-01 1.48235485e-01
      -1.96158677e-01 2.90517896e-01 -3.12139511e-01 -1.09520726e-01
      6.33357108e-01 5.42956851e-02 -7.58938789e-01 -3.38321596e-01
      1.01015374e-01 -3.89410526e-01 2.52048135e-01</_>
    <_>
      -1.47630119e+00 -8.68215561e-02 1.78759158e-01 7.69745409e-01
      1.34100473e+00 -1.34610757e-01 6.27550364e-01 -2.02937409e-01
      -2.29994923e-01 3.05989355e-01 -7.42940158e-02 1.46724179e-01
      -6.05393574e-02 -1.98371634e-02 1.75347432e-01</_>
    <_>
      -1.30453634e+00 -2.44896904e-01 3.20592612e-01 -3.15401882e-01
      -7.62475356e-02 1.27900466e-01 -6.04244947e-01 -4.36550856e-01
      2.19884425e-01 -4.19273973e-01 3.14817816e-01 5.62423706e-01
      -2.70066470e-01 -1.20249189e-01 -2.08984867e-01</_>
    <_>
      -1.45308173e+00 -5.36008924e-02 1.39666840e-01 7.47112572e-01
      1.26019132e+00 -3.26695070e-02 5.29627025e-01 -2.45377630e-01
      -1.94598511e-01 3.69530469e-01 -6.74198568e-02 3.80723067e-02
      -4.88728434e-02 -4.13894793e-03 1.78055882e-01</_>
    <_>
      2.36840233e-01 1.47727549e+00 -1.02638245e+00 -1.10680294e+00
      5.41298807e-01 -1.37230158e-01 -8.30004737e-02 -3.57057422e-01
      -1.96249127e-01 2.51470357e-01 -3.32472543e-03 -6.77294284e-02
      -1.74530014e-01 -4.58126187e-01 5.57503223e-01</_>
    <_>
      4.54086095e-01 1.92396390e+00 -1.06648970e+00 5.74512072e-02
      -3.13143373e-01 -2.26199359e-01 2.24849254e-01 2.07998484e-01
      9.14999843e-03 3.21643837e-02 -2.60167241e-01 -3.59967500e-01
      1.92610025e-02 3.44138205e-01 -1.13289826e-01</_>
    <_>
      1.11874878e-01 1.28757846e+00 -1.10734880e+00 -1.02068949e+00
      3.97878885e-01 1.49540782e-01 2.11416068e-03 -4.08892334e-01
      -2.47708708e-01 1.29998133e-01 7.21303895e-02 -1.13393612e-01
      -1.64693758e-01 -8.33994225e-02 1.01022936e-01</_>
    <_>
      -2.48870105e-01 4.25949097e-01 4.68185365e-01 2.12438628e-01
      -1.20701581e-01 -3.12469676e-02 1.23160563e-01 8.12598109e-01
      -9.91058275e-02 -1.67044044e-01 -4.33164954e-01 9.50914979e-01
      2.99083143e-01 -4.41779107e-01 3.19557458e-01</_>
    <_>
      -2.75762618e-01 1.53870761e+00 -4.88857716e-01 1.46808863e+00
      -5.43859661e-01 -4.16571081e-01 -3.39368463e-01 -4.82405573e-02
      -1.41901687e-01 -1.57357290e-01 3.88266802e-01 2.61912018e-01
      2.63324469e-01 -4.16433774e-02 -2.85908908e-01</_>
    <_>
      -9.36141431e-01 6.75355792e-01 -7.69361079e-01 -2.92962313e-01
      -2.05000073e-01 3.67324129e-02 8.54288694e-03 -3.88149649e-01
      2.32923567e-01 -9.72039178e-02 5.54137349e-01 3.85625362e-01
      -8.33229944e-02 -4.44164723e-01 1.81289256e-01</_>
    <_>
      -1.09656595e-01 -4.14147526e-02 -4.56301570e-02 -1.72984853e-01
      -3.46968204e-01 -2.13271841e-01 -5.19323684e-02 5.38587511e-01
      -4.70375866e-01 2.43319869e-01 -8.34591031e-01 6.37736499e-01
      3.91914509e-02 -6.07209317e-02 4.42809910e-01</_>
    <_>
      -3.29099745e-01 1.32797670e+00 4.21020016e-02 1.30079770e+00
      -4.45187032e-01 -1.35750532e-01 -2.16631129e-01 4.16591495e-01
      -2.27170452e-01 -4.53565359e-01 3.35389853e-01 3.60440552e-01
      4.72985476e-01 8.91749412e-02 -4.23052937e-01</_>
    <_>
      -6.77785054e-02 9.96761739e-01 -2.84766763e-01 1.34594011e+00
      -4.80948031e-01 -7.12932408e-01 -4.87035364e-01 4.64992642e-01
      -6.72305763e-01 -2.11463705e-01 -2.25165755e-01 8.99003968e-02
      8.22457895e-02 6.42549768e-02 -6.39194809e-03</_>
    <_>
      -6.53789043e-01 5.86811960e-01 3.03623140e-01 -2.00181961e-01
      -2.19049960e-01 4.44168717e-01 4.38935667e-01 6.02049351e-01
      3.08400780e-01 -4.56682831e-01 -2.04669818e-01 7.55402267e-01
      3.36461872e-01 -3.06152940e-01 2.54231215e-01</_>
    <_>
      6.86299205e-01 -9.85930979e-01 -4.03369784e-01 -3.84136336e-03
      3.75619024e-01 -4.80351925e-01 1.82313368e-01 4.94958788e-01
      3.12850535e-01 -5.56676924e-01 1.46495074e-01 -2.61506647e-01
      -1.45376071e-01 -7.47261243e-03 8.52156132e-02</_>
    <_>
      6.93280518e-01 -1.01411760e+00 -4.46783483e-01 -2.31678821e-02
      3.71436924e-01 -4.99143332e-01 1.85463652e-01 5.11120319e-01
      3.30655873e-01 -5.65283000e-01 1.14997678e-01 -2.28241235e-01
      -1.13625579e-01 5.33644147e-02 8.82405788e-02</_>
    <_>
      1.28858495e+00 -7.29913771e-01 -6.88892901e-01 2.77227432e-01
      4.28590745e-01 1.43069637e+00 -3.96046042e-01 4.37106401e-01
      -6.43728852e-01 -4.13210273e-01 -2.72605330e-01 -1.13398731e-01
      -1.55933887e-01 -7.94295445e-02 -2.40286648e-01</_>
    <_>
      7.48710573e-01 -1.41632593e+00 -5.45582592e-01 -3.71459872e-01
      -5.33575080e-02 -6.92222953e-01 -2.36248985e-01 1.70389220e-01
      -2.84907967e-01 6.51551306e-01 2.89005250e-01 -1.55241296e-01
      6.01936638e-01 -7.61008441e-01 -5.59671104e-01</_>
    <_>
      1.06190825e+00 -1.36320174e+00 -4.40380573e-01 1.31466791e-01
      -5.78374684e-01 -7.89925307e-02 8.42079103e-01 -9.34992790e-01
      8.06680992e-02 -3.67804952e-02 -6.34663522e-01 3.10440481e-01
      -1.05496407e-01 1.66269422e-01 -4.65853959e-01</_>
    <_>
      1.07242644e+00 -1.34680390e+00 -4.86190081e-01 1.21299312e-01
      -6.18812978e-01 -1.40382916e-01 7.85851777e-01 -9.58486080e-01
      1.08036630e-01 -4.54354398e-02 -6.46570206e-01 2.94657797e-01
      -1.64470479e-01 1.63589254e-01 -4.34703082e-01</_>
    <_>
      8.86408448e-01 -5.11803985e-01 -5.12964070e-01 6.38277978e-02
      2.34839007e-01 4.10505623e-01 -2.73611456e-01 6.32779062e-01
      1.03191364e+00 1.16388392e+00 2.20149890e-01 5.70117354e-01
      -8.35318025e-03 5.42994261e-01 -8.01772401e-02</_>
    <_>
      8.88421297e-01 -4.82470542e-01 -5.32576621e-01 5.04535735e-02
      2.80072063e-01 3.73946786e-01 -2.34094247e-01 6.72330439e-01
      1.04449153e+00 1.12541020e+00 1.95358068e-01 5.09007215e-01
      -8.06820244e-02 5.15776753e-01 -8.39969963e-02</_>
    <_>
      1.06829989e+00 -1.11798215e+00 -1.16316944e-01 9.80574191e-02
      -2.26435512e-01 3.85598212e-01 3.01968396e-01 -5.22723496e-01
      -1.26671679e-02 -4.63264316e-01 5.33113003e-01 -9.70454216e-02
      7.75343120e-01 3.69291782e-01 6.31651163e-01</_>
    <_>
      1.41568482e+00 8.44719231e-01 4.44127589e-01 -6.71220064e-01
      3.83446574e-01 6.68189287e-01 -9.29187983e-02 -2.27574915e-01
      1.70519784e-01 -4.73767258e-02 4.40651476e-02 1.25974730e-01
      7.31140614e-01 -2.80099720e-01 1.39325783e-01</_>
    <_>
      1.70334566e+00 1.01177013e+00 1.18698847e+00 -7.96583474e-01
      5.75784266e-01 -5.73926754e-02 -2.34182581e-01 1.21856265e-01
      -5.18529043e-02 -4.16379601e-01 -1.13293342e-01 4.46131349e-01
      2.81686068e-01 6.25861660e-02 -3.28886956e-01</_>
    <_>
      1.04646838e+00 -3.37945707e-02 6.68961644e-01 2.76935011e-01
      -5.45421243e-03 2.43970808e-02 1.92630723e-01 -1.56518489e-01
      2.85748482e-01 -6.28694415e-01 7.50048637e-01 3.06658000e-01
      3.13884243e-02 -1.57805562e-01 1.75480962e-01</_>
    <_>
      1.47900879e+00 -6.06560297e-02 8.21613669e-01 2.47548595e-02
      -5.28297499e-02 -8.95302594e-01 -2.31819674e-01 4.39750880e-01
      -4.40358818e-01 -1.46663204e-01 -4.04580295e-01 7.87364691e-02
      -5.89126050e-01 6.04186840e-02 5.17595857e-02</_>
    <_>
      1.13847899e+00 5.43201745e-01 4.01292086e-01 1.11205792e+00
      -8.46830487e-01 1.21655740e-01 -2.73522526e-01 -3.82738739e-01
      -4.63761359e-01 3.73194277e-01 2.21719086e-01 -2.56809920e-01
      -3.39677393e-01 -1.84637636e-01 4.99758363e-01</_>
    <_>
      1.03433347e+00 -4.01288122e-01 2.40774184e-01 2.62542427e-01
      -1.23110833e-02 -7.56441057e-01 -1.47633001e-01 3.61362576e-01
      -4.69669044e-01 4.90487278e-01 -2.60260493e-01 -3.85512114e-01
      -2.21774623e-01 -4.67646271e-01 3.01262707e-01</_>
    <_>
      1.12453330e+00 6.83691442e-01 3.52021337e-01 5.19698799e-01
      -7.36320242e-02 9.52137768e-01 1.41185790e-01 -5.75394183e-02
      1.04992008e+00 -2.09299490e-01 7.40658581e-01 -7.17856139e-02
      3.56809735e-01 -3.25885266e-01 2.36973450e-01</_></support_vectors>
  <decision_functions>
    <_>
      <sv_count>16</sv_count>
      <rho>-2.7431777228687498e-01</rho>
      <alpha>
        9.7834058913403499e-01 5.5594224131170145e-01
        7.1395488385512129e-02 2.8388439568722906e-01
        4.3999564140556513e-01 9.1449131353837868e-03
        3.9143774439008294e-03 3.4977378413238974e-01
        1.4198975701486849e-01 6.1203454020770398e-01
        2.4816396569625016e-01 -7.6875544478994395e-01
        -8.4765968356588894e-01 -6.7834102300984300e-01
        -5.4402956900403576e-01 -8.5579397318482797e-01</alpha>
      <index>
        20 23 22 24 26 28 29 30 31 33 35 8 5 0 2 7</index></_>
    <_>
      <sv_count>18</sv_count>
      <rho>-2.4808089916776804e-01</rho>
      <alpha>
        9.1324077194601827e-01 1.5655695959821236e-01
        2.2133553795063959e-01 2.6284221149403547e-01
        7.9519754464708359e-01 1.2912450151533834e+00
        3.7474602702662635e-01 7.3941147434863935e-02
        1.4648353174000952e+00 1.1409546637116532e+00
        -9.0836094193790984e-01 -7.6788102798216107e-01
        -4.0683067191736461e-01 -5.4271230824378747e-01
        -2.5022280968746027e+00 -2.1004115690355266e-01
        -6.0020130078780798e-01 -7.5663969171542633e-01</alpha>
      <index>
        21 23 22 25 27 29 30 32 33 34 12 10 11 17 16 14 13 18</index></_>
    <_>
      <sv_count>11</sv_count>
      <rho>-6.3462070515932126e-02</rho>
      <alpha>
        2.6178549611314130e+00 1.0997740107021388e+00
        2.1961658327226966e-01 6.3574831349988842e-02
        3.2853568260017318e-01 4.3989836180970183e+00
        1.8360734186206445e-01 2.1450712404382871e-01
        -4.1689231090405450e+00 -1.8794899476683233e+00
        -3.0780410963500331e+00</alpha>
      <index>
        8 9 5 0 1 3 4 6 19 16 15</index></_></decision_functions></opencv_ml_svm>
</opencv_storage>
