<?xml version="1.0"?>
<opencv_storage>
<opencv_ml_svm>
  <format>3</format>
  <svmType>C_SVC</svmType>
  <kernel>
    <type>RBF</type>
    <gamma>8.9999999999999997e-02</gamma></kernel>
  <C>10.</C>
  <term_criteria><iterations>1000</iterations></term_criteria>
  <var_count>2</var_count>
  <class_count>2</class_count>
  <class_labels type_id="opencv-matrix">
    <rows>2</rows>
    <cols>1</cols>
    <dt>i</dt>
    <data>
      20 21</data></class_labels>
  <sv_total>3</sv_total>
  <support_vectors>
    <_>
      -1.43406916e+00 2.82509550e-02</_>
    <_>
      1.40662932e+00 1.24091220e+00</_>
    <_>
      1.51692450e+00 -1.19590831e+00</_></support_vectors>
  <decision_functions>
    <_>
      <sv_count>3</sv_count>
      <rho>2.1316467583932561e-01</rho>
      <alpha>
        2.0637102071093785e+00 -1.0932793782684418e+00
        -9.7043082884093590e-01</alpha>
      <index>
        0 1 2</index></_></decision_functions></opencv_ml_svm>
</opencv_storage>
