<?xml version="1.0"?>
<opencv_storage>
<opencv_ml_svm>
  <format>3</format>
  <svmType>C_SVC</svmType>
  <kernel>
    <type>RBF</type>
    <gamma>8.9999999999999997e-02</gamma></kernel>
  <C>10.</C>
  <term_criteria><iterations>1000</iterations></term_criteria>
  <var_count>55</var_count>
  <class_count>2</class_count>
  <class_labels type_id="opencv-matrix">
    <rows>2</rows>
    <cols>1</cols>
    <dt>i</dt>
    <data>
      71 72</data></class_labels>
  <sv_total>35</sv_total>
  <support_vectors>
    <_>
      1.92427605e-01 1.45690644e+00 -2.94030368e-01 8.33236814e-01
      -3.01283926e-01 7.19115324e-03 2.61951149e-01 4.92924126e-03
      -4.69861031e-02 2.28561848e-01 -4.15645182e-01 3.97086740e-01
      4.47264969e-01 9.33120698e-02 1.58167526e-01 4.28720683e-01
      -5.68984263e-02 -1.50693031e-02 -9.65583995e-02 -4.56095457e-01
      -4.31886196e-01 -7.60032330e-03 -6.82520568e-02 3.55308771e-01
      2.68874168e-02 -7.32189417e-02 3.65057349e-01 -5.37995517e-01
      -4.79068421e-02 3.53462607e-01 1.32068306e-01 5.46611957e-02
      1.50914028e-01 -1.17124945e-01 4.30641100e-02 3.08416814e-01
      -1.41196415e-01 1.46285817e-01 -1.63177520e-01 2.31883779e-01
      1.11325435e-01 -8.83306712e-02 -1.04804207e-02 1.50987089e-01
      3.04759055e-01 6.22268692e-02 1.61390334e-01 8.56494457e-02
      -2.00696394e-01 9.94872451e-02 1.69239845e-02 5.80203570e-02
      5.21600023e-02 1.51124522e-01 -7.97414109e-02</_>
    <_>
      2.79645532e-01 1.39754868e+00 -4.93474752e-01 9.96175945e-01
      -2.21807837e-01 -1.80656224e-01 9.85909104e-02 -3.71138543e-01
      -8.73769224e-02 1.61482453e-01 -7.85844862e-01 1.39940947e-01
      2.36497909e-01 -2.50754744e-01 2.53979295e-01 2.48110116e-01
      2.08718747e-01 -1.03196226e-01 -8.54409188e-02 -7.99954906e-02
      -4.55598742e-01 -3.81843597e-02 -8.19746703e-02 2.78534114e-01
      3.02448310e-02 1.78997703e-02 -3.52861173e-02 -7.88071603e-02
      1.46005005e-01 -1.57901347e-01 2.67021195e-03 1.36871785e-01
      -6.25186414e-02 -1.28617495e-01 1.58823878e-02 -8.23092088e-03
      -1.23867057e-02 -7.03581944e-02 8.53530094e-02 1.82031527e-01
      2.99365908e-01 -6.59727231e-02 -5.05358912e-02 4.25554872e-01
      7.90416226e-02 1.07576409e-02 1.09305166e-01 -3.92048329e-01
      -2.31782600e-01 -1.00749969e-01 -2.56347567e-01 1.33007243e-01
      2.00067461e-01 1.79698780e-01 -2.78012395e-01</_>
    <_>
      1.30649209e+00 -1.57643989e-01 -2.82087445e-01 -2.61881184e-02
      1.80540621e-01 -2.47041568e-01 5.10289848e-01 -2.26125583e-01
      -2.33638033e-01 3.54547262e-01 8.67034048e-02 -3.98951285e-02
      -1.41223907e-01 -7.69827887e-02 2.61082739e-01 2.29780450e-02
      5.18926568e-02 7.20794618e-01 -2.34128647e-02 -2.10264355e-01
      1.69789910e-01 1.98058009e-01 6.96104914e-02 4.73803505e-02
      -3.49716306e-01 2.36406669e-01 -3.20582762e-02 -9.08012018e-02
      -6.06552581e-04 -1.44286677e-01 -1.29148901e-01 2.14098960e-01
      -2.97940373e-01 2.00507760e-01 -7.37723485e-02 1.11472994e-01
      1.06880471e-01 1.44088402e-01 2.03315616e-01 1.48912951e-01
      2.06286952e-01 1.97526574e-01 7.52764642e-02 -2.39589676e-01
      1.43848553e-01 -2.76585340e-01 2.34700684e-02 -2.04032287e-02
      2.27485180e-01 -4.39103469e-02 -7.82689676e-02 -1.99405458e-02
      -2.02259347e-02 1.54727325e-01 9.40815955e-02</_>
    <_>
      -1.11729336e+00 -1.41400650e-01 4.74106580e-01 2.05819055e-01
      -4.95872080e-01 1.77419826e-01 -4.17888969e-01 -2.60901451e-02
      6.53465465e-02 -2.49443322e-01 -5.04057743e-02 3.43104929e-01
      -3.61866970e-03 1.41710222e-01 2.36447379e-02 2.05467984e-01
      1.07337702e-02 2.11119652e-01 -1.02257624e-01 1.77654132e-01
      1.48725092e-01 -1.01989314e-01 6.74659684e-02 -1.40595362e-01
      -3.17197353e-01 -2.38154501e-01 4.64898162e-02 1.25482246e-01
      2.87308246e-02 -4.85530794e-01 5.73570766e-02 3.32514971e-01
      -7.89665431e-02 -8.50732848e-02 -1.02105185e-01 -7.42239952e-02
      1.48730263e-01 -1.06549241e-01 -2.76105553e-01 -1.57303503e-03
      8.95099416e-02 -4.15951252e-01 1.99824329e-02 -5.79102226e-02
      7.26741925e-02 1.12419121e-01 1.81203485e-01 2.49704957e-01
      5.68598956e-02 6.09490834e-02 8.77313390e-02 -1.06136695e-01
      -2.21761733e-01 2.63466567e-01 3.19975644e-01</_>
    <_>
      1.28088808e+00 -4.03875142e-01 -2.12506235e-01 -3.95181030e-01
      3.40099186e-01 7.26063037e-03 4.08069611e-01 -1.57465741e-01
      -3.26599956e-01 7.62199685e-02 -2.51009576e-02 3.68700884e-02
      1.51291922e-01 -4.32519335e-03 1.29688382e-01 -2.26240888e-01
      7.98578411e-02 5.63979857e-02 1.91005096e-02 -2.28525046e-02
      1.92037404e-01 -1.59641981e-01 -3.05781633e-01 -8.00788254e-02
      -1.11816935e-01 1.74692988e-01 1.30636364e-01 1.95513591e-01
      2.78674513e-01 1.92693070e-01 6.72478527e-02 9.77110863e-02
      -1.17809437e-01 -1.40996486e-01 9.71168652e-02 2.45578829e-02
      1.75194889e-01 -1.30852938e-01 8.91149975e-03 8.40707198e-02
      -8.56335685e-02 1.58818334e-01 -2.36351073e-01 2.87710488e-01
      -1.53385535e-01 2.43462563e-01 -4.52979691e-02 1.56486616e-01
      -1.27760306e-01 -1.62836522e-01 9.05116461e-03 -4.54130098e-02
      -3.21720660e-01 -1.43401414e-01 2.85495281e-01</_>
    <_>
      -2.15191752e-01 7.70179927e-01 -2.19694629e-01 3.57320338e-01
      2.70512521e-01 2.89072972e-02 -1.76410973e-01 -5.13898969e-01
      1.57234818e-01 -2.29396820e-01 2.26977095e-02 5.29708266e-02
      8.22138265e-02 -5.12704439e-02 -1.01099819e-01 -1.86769947e-01
      5.67757385e-03 -1.94276452e-01 -4.74049419e-01 -9.32882577e-02
      2.05604672e-01 2.52402455e-01 7.75130764e-02 -6.91420883e-02
      1.18780494e-01 9.25959349e-02 -1.78902313e-01 -1.02445051e-01
      -7.09981322e-02 -2.54604727e-01 -2.82515973e-01 -3.19653124e-01
      -1.72829986e-01 -1.84247851e-01 -1.36335522e-01 -3.05727512e-01
      2.77287126e-01 2.57301420e-01 -1.03496887e-01 -4.77220006e-02
      -6.99615479e-02 -7.99749792e-02 -1.45497862e-02 -1.96851581e-01
      -1.05804987e-01 1.11623622e-01 2.97649324e-01 -4.89514619e-02
      -4.59549308e-01 1.07793741e-01 2.35590309e-01 -3.26253235e-01
      2.43719786e-01 2.45896921e-01 9.23072472e-02</_>
    <_>
      -9.52540874e-01 -1.45392135e-01 5.40859044e-01 -9.42236364e-01
      9.58549082e-01 -3.15527439e-01 -5.04709542e-01 5.75280227e-02
      6.25844121e-01 -2.61804551e-01 -2.04871759e-01 -4.15216863e-01
      -9.25188884e-02 -2.25025445e-01 -1.21178605e-01 5.94939142e-02
      4.44721133e-01 2.34452993e-01 5.74933700e-02 1.49433717e-01
      -5.15469424e-02 3.70713443e-01 -9.25392509e-02 2.63485700e-01
      2.91066796e-01 5.58529913e-01 1.20808557e-01 -1.32590711e-01
      -1.68123379e-01 6.46832064e-02 -5.56841850e-01 8.35307594e-03
      -2.30446998e-02 6.36818483e-02 -1.26998261e-01 1.87485278e-01
      -2.45750174e-02 1.39212489e-01 -9.51217785e-02 2.63711751e-01
      -1.79466292e-01 6.27740026e-02 -5.00303172e-02 2.73965839e-02
      3.27493846e-01 2.50252932e-01 1.08965877e-02 -2.28307024e-02
      4.78848256e-02 -1.68996736e-01 -2.26223946e-01 -1.26844525e-01
      -1.61068052e-01 5.46839759e-02 4.67197560e-02</_>
    <_>
      6.85877621e-01 2.82526147e-02 7.70786032e-02 1.69278219e-01
      1.25492543e-01 -3.27517092e-03 1.01900570e-01 -1.83818132e-01
      -3.38983983e-01 -1.57033965e-01 -7.09821098e-03 -6.65850192e-02
      3.48444015e-01 4.11532879e-01 -4.12792303e-02 -2.43036047e-01
      6.47307262e-02 4.94597942e-01 2.90183485e-01 3.69086295e-01
      3.59266698e-02 -1.07976407e-01 -3.81962582e-03 1.84185669e-01
      3.08742225e-01 -2.39566371e-01 1.57590464e-01 8.49173069e-02
      -1.36596128e-01 3.58827710e-02 2.16038719e-01 -2.62763590e-01
      -1.51689509e-02 -2.20417529e-01 -7.09161311e-02 -2.05669805e-01
      -1.01881728e-01 8.76404494e-02 5.50312996e-02 7.77204186e-02
      -1.27085477e-01 -6.28831759e-02 1.65929720e-02 9.69967395e-02
      3.81494239e-02 -8.63333717e-02 -1.40370265e-01 2.42331997e-01
      2.63653509e-02 -1.72403023e-01 2.10295603e-01 -3.31352025e-01
      2.72557400e-02 -6.49614111e-02 2.97912546e-02</_>
    <_>
      -6.86916888e-01 3.09246808e-01 4.90531117e-01 1.22040844e+00
      2.08975405e-01 4.55345839e-01 -5.19766152e-01 -2.07969993e-01
      -2.87320793e-01 -3.80550712e-01 1.47570923e-01 -1.76225230e-01
      1.94775075e-01 -4.04363930e-01 -1.89044952e-01 -6.48370922e-01
      -2.60052532e-01 2.54255477e-02 5.05534969e-02 4.87476848e-02
      -1.81642510e-02 2.49617904e-01 2.75185734e-01 4.30831537e-02
      1.08069018e-01 4.89479959e-01 -2.49883458e-01 -1.43952236e-01
      3.17155331e-01 1.85491532e-01 -4.55895253e-02 3.19724232e-02
      7.87646472e-02 -1.51094303e-01 2.17473894e-01 -1.89394236e-01
      -8.44222978e-02 2.56218642e-01 8.49455502e-03 1.39302567e-01
      1.30261272e-01 1.04582593e-01 -7.43129104e-02 -1.91563055e-01
      4.23765145e-02 2.75622848e-02 4.26646285e-02 -1.10871777e-01
      -4.89667654e-02 -1.28977850e-01 1.23481564e-01 -1.60091922e-01
      -1.97825357e-02 -1.07864410e-01 1.36838347e-01</_>
    <_>
      -6.12466156e-01 1.04959655e+00 2.34043285e-01 1.10784221e+00
      1.67033654e-02 6.36653721e-01 -2.02785153e-02 -5.47676235e-02
      -3.20615172e-02 -5.32141566e-01 3.01645994e-01 -1.58236817e-01
      1.61177844e-01 -2.67982185e-01 -2.25317746e-01 -3.38503271e-01
      2.61970580e-01 1.26916349e-01 -1.27558663e-01 -3.33690614e-01
      5.95187843e-02 -4.93599139e-02 5.27097583e-01 -3.17135870e-01
      -2.90053517e-01 2.56851673e-01 -1.71793535e-01 -1.43597141e-01
      1.54813156e-01 3.90693575e-01 -2.13128403e-01 -2.58033015e-02
      -4.07491118e-01 -2.86017895e-01 3.23306054e-01 -1.48982495e-01
      -2.16845363e-01 -1.10156380e-01 -1.86307326e-01 2.17384368e-01
      -3.49523388e-02 6.76233470e-02 -1.97523907e-01 -2.29851738e-01
      1.06971361e-01 1.24174297e-01 -2.96400934e-01 -2.99717132e-02
      -1.81280091e-01 2.28320092e-01 1.70980245e-01 4.33707356e-01
      -1.99699849e-01 2.15384318e-03 -1.03904843e-01</_>
    <_>
      4.17117327e-02 5.32654583e-01 -3.33357960e-01 -4.69721407e-01
      9.25469279e-01 -3.94159332e-02 -1.89330459e-01 1.62217841e-01
      7.04723954e-01 -7.79898345e-01 -6.53083086e-01 2.33233482e-01
      8.12703967e-02 -3.22157562e-01 1.84587479e-01 1.16755456e-01
      -2.87266910e-01 4.51629966e-01 7.03836262e-01 -9.64445621e-02
      1.01923518e-01 1.81385845e-01 3.16075474e-01 -1.88018501e-01
      -6.40046299e-02 3.27642821e-02 -1.59616113e-01 2.33963773e-01
      7.32812062e-02 2.04806134e-01 3.07101041e-01 -5.56041412e-02
      -3.15999463e-02 -6.26408309e-02 -5.50499678e-01 -1.62275825e-02
      -2.19098404e-02 -6.64361790e-02 1.32684156e-01 1.01849083e-02
      1.55192137e-01 -6.18922384e-03 -2.02119038e-01 1.90335214e-01
      9.15388316e-02 -4.64196689e-03 1.02608740e-01 -1.60881445e-01
      -3.82321030e-02 9.15049687e-02 2.36495081e-02 -5.47090918e-02
      1.28172979e-01 -3.64803299e-02 2.91934252e-01</_>
    <_>
      9.97564971e-01 1.76935062e-01 -3.50293994e-01 3.14274915e-02
      3.00828874e-01 -1.93956435e-01 -5.65583296e-02 -3.15203041e-01
      -2.69291043e-01 1.48580089e-01 7.26833940e-02 -1.62241906e-01
      -1.32348150e-01 -3.12779918e-02 -8.46848041e-02 -2.98976749e-01
      -2.91557789e-01 3.43767136e-01 -1.45192053e-02 4.68106605e-02
      -7.44231343e-02 -8.46701786e-02 -5.23790568e-02 -1.49494987e-02
      -1.79822613e-02 2.31478103e-02 -2.24775612e-01 -1.53156310e-01
      -6.88183829e-02 -8.28127190e-03 -2.21586809e-01 -4.27753329e-02
      3.75312686e-01 -1.22868627e-01 -6.05581887e-02 -5.29507883e-02
      3.35949004e-01 -3.43058109e-01 3.46241668e-02 1.57574341e-01
      -4.10305820e-02 1.77203000e-01 1.09023852e-02 -1.33159250e-01
      2.02426258e-02 1.94472119e-01 2.31609028e-02 4.94336225e-02
      -1.48437217e-01 9.90049690e-02 -1.49163216e-01 5.36221340e-02
      7.78892823e-03 1.43296689e-01 1.79611400e-01</_>
    <_>
      8.48186255e-01 -6.81670429e-03 -1.98852539e-01 -8.22380781e-02
      1.96524590e-01 9.61154103e-02 1.73301890e-01 -2.75886148e-01
      -2.81352907e-01 -4.19299155e-02 1.57199621e-01 2.11109966e-01
      -3.76579091e-02 4.76649672e-01 1.13009475e-01 -1.07964583e-01
      -4.75372791e-01 1.63291276e-01 1.57942533e-01 -1.29595265e-01
      -1.19789980e-01 -1.19669423e-01 6.98883459e-02 -7.28768334e-02
      2.38109320e-01 2.12092340e-01 2.21593268e-02 2.17129905e-02
      2.10644171e-01 -1.08866811e-01 -3.27836983e-02 2.62965951e-02
      -2.76227407e-02 -1.10414967e-01 1.33029699e-01 1.15894131e-01
      -6.77525476e-02 1.37521341e-01 -7.71291032e-02 -2.87136644e-01
      -9.27600786e-02 1.47583872e-01 5.49118929e-02 1.36360645e-01
      4.09579352e-02 -2.43330318e-02 2.08709136e-01 -2.66269594e-01
      -9.23570469e-02 -2.72612095e-01 -1.53160170e-01 7.70848617e-03
      -1.46327972e-01 4.68236282e-02 -1.45745585e-02</_>
    <_>
      -1.14708650e+00 2.60082483e-01 2.66750336e-01 -8.00590277e-01
      9.86719787e-01 -5.96518815e-01 1.02553889e-01 4.57572043e-02
      2.20844105e-01 6.24469101e-01 -5.06899476e-01 -1.99097291e-01
      -1.24734230e-01 3.11831295e-01 -2.76119202e-01 7.77603732e-03
      4.06761318e-01 -1.34494424e-01 -3.16190213e-01 9.96965840e-02
      -9.21682343e-02 -1.91863269e-01 4.94490147e-01 1.30484283e-01
      1.38451830e-01 2.05260307e-01 1.13266662e-01 1.20018251e-01
      3.69469002e-02 -7.30814878e-03 -2.37509862e-01 6.78914115e-02
      -1.53158069e-01 7.22852498e-02 1.32816926e-01 -6.70343786e-02
      -7.12174252e-02 2.26834834e-01 -1.83963865e-01 -1.43815696e-01
      8.77821520e-02 -2.57867694e-01 7.93539584e-02 -2.32564852e-01
      -5.91722168e-02 3.18827271e-01 9.43586081e-02 -1.03553221e-01
      1.11339353e-01 2.71376800e-02 -7.10905716e-02 2.09178120e-01
      7.06237555e-02 1.70986112e-02 -2.75420509e-02</_>
    <_>
      -1.47862935e+00 1.84369862e-01 6.05462432e-01 -8.36842582e-02
      2.36700490e-01 4.96199608e-01 -3.60234641e-02 -1.73118979e-01
      -1.39866799e-01 -4.15025055e-02 2.25275874e-01 -1.95864111e-01
      -1.12294868e-01 -2.23932624e-01 -3.95290166e-01 1.62269130e-01
      -1.10506818e-01 7.21470639e-02 -2.80596375e-01 -1.41456887e-01
      -4.62545902e-01 1.69568539e-01 -2.09295034e-01 3.32025975e-01
      2.23067552e-02 -1.87727749e-01 -2.53595650e-01 1.34420082e-01
      3.50811370e-02 -3.24858397e-01 5.22765703e-02 9.55565274e-02
      9.29705203e-02 1.02521487e-01 1.53898373e-01 8.39089304e-02
      6.16418347e-02 -1.02723734e-02 -1.45246787e-02 1.49685100e-01
      -1.96865365e-01 -1.26303449e-01 -2.86250263e-01 4.00895923e-01
      1.32858247e-01 -3.04205269e-01 1.58257410e-01 3.50403517e-01
      1.05849896e-02 -1.84916139e-01 -7.68299922e-02 4.28039730e-02
      -1.26510546e-01 2.16518745e-01 2.15982366e-03</_>
    <_>
      -6.76840246e-01 2.13641711e-02 6.25996292e-01 1.66425437e-01
      2.60590792e-01 1.97231188e-01 4.99669552e-01 6.64420128e-02
      4.49881218e-02 -2.82335967e-01 2.03752354e-01 4.01879191e-01
      2.38188803e-01 -5.25617599e-01 2.26157188e-01 -8.88102129e-03
      3.08661699e-01 -1.99482948e-01 -4.29754615e-01 -4.62064743e-01
      2.69534755e-02 2.59916008e-01 -1.21966720e-01 4.27886158e-01
      1.03575841e-01 -2.44541392e-01 -3.23652178e-01 4.45822835e-01
      -7.32162297e-02 2.18435183e-01 -1.45925507e-01 -2.87073910e-01
      -2.11593032e-01 -3.29596579e-01 -1.49935767e-01 1.79975525e-01
      1.66191071e-01 -1.92299604e-01 2.78415740e-01 -8.50612074e-02
      -1.53618857e-01 8.31267089e-02 -2.97788739e-01 -6.93432940e-03
      1.16270492e-02 -1.67848811e-01 6.32463768e-03 2.34885816e-03
      1.81607649e-01 4.71233837e-02 4.25926089e-01 -2.51868904e-01
      3.22181970e-01 7.49545842e-02 1.50118858e-01</_>
    <_>
      -1.43323660e+00 -6.01987541e-02 3.45422804e-01 4.57367348e-03
      -2.27436498e-01 -2.62810439e-01 7.01997638e-01 -1.79401264e-01
      2.15128750e-01 -3.22650790e-01 -4.87337671e-02 -2.47825533e-01
      -2.23923191e-01 2.46916100e-01 -2.73462772e-01 2.27727920e-01
      -3.63849074e-01 6.01630732e-02 -2.17723072e-01 4.42101300e-01
      3.37939411e-01 2.00927537e-02 -3.69073302e-01 -7.94355199e-02
      -1.24507323e-01 2.58553475e-01 -4.69435543e-01 -7.25558922e-02
      -8.44538584e-02 -7.04818666e-02 -2.23441690e-01 1.48873441e-02
      -5.17861992e-02 3.90942022e-02 -2.27738723e-01 2.60037988e-01
      -1.04913957e-01 -2.34684512e-01 -2.42968321e-01 -7.53013492e-02
      1.22996137e-01 -2.79511571e-01 -3.09867784e-02 -3.81661532e-03
      1.24490596e-01 -1.33399993e-01 1.84057862e-01 8.03743303e-02
      7.33762383e-02 -8.32634717e-02 -7.50974417e-02 5.13822623e-02
      -1.47822157e-01 2.94255346e-01 -1.25799745e-01</_>
    <_>
      -1.13066411e+00 1.33440629e-01 4.33094382e-01 -5.53908311e-02
      -3.53811115e-01 -2.98076481e-01 7.63353825e-01 4.87444282e-01
      -1.50641978e-01 -5.77266328e-02 1.43275499e-01 -7.44452998e-02
      2.50331730e-01 3.66685063e-01 3.33722115e-01 -3.50191593e-01
      1.59202129e-01 -2.75055766e-01 4.76524353e-01 -6.08448982e-02
      -1.14186756e-01 3.25578779e-01 -1.62588358e-02 9.79979858e-02
      -3.49684000e-01 -2.05788866e-01 7.70557895e-02 -1.42373279e-01
      -2.96063330e-02 -6.70010969e-03 -1.47666022e-01 2.10200269e-02
      -1.41436398e-01 1.39322251e-01 2.40052864e-01 -9.98495966e-02
      -1.26111194e-01 3.27770761e-03 2.22550526e-01 5.75640611e-02
      3.50870728e-01 -1.44336969e-01 -3.84154916e-01 1.05612449e-01
      -3.87201607e-02 2.07985997e-01 2.86422551e-01 5.46904579e-02
      4.80422750e-02 -1.84982717e-01 3.14608775e-02 -3.37174445e-01
      2.34504238e-01 -2.13503808e-01 3.20603512e-02</_>
    <_>
      1.16794896e+00 1.11109883e-01 -1.67700216e-01 5.21415889e-01
      2.79579312e-02 -5.06316602e-01 1.79053411e-01 -2.64302641e-01
      1.69691220e-02 1.93466409e-03 1.88199237e-01 -1.83139443e-01
      -1.12011671e-01 -7.81335831e-02 1.24354281e-01 3.16734724e-02
      2.58234739e-01 9.55765992e-02 -6.93037137e-02 -4.17083986e-02
      1.18310846e-01 1.01184882e-01 9.14404839e-02 -6.21083528e-02
      2.01168478e-01 -9.53281820e-02 -2.26130813e-01 -1.61561355e-01
      -1.65343195e-01 8.59721825e-02 -1.75299291e-02 9.74133834e-02
      -2.40172725e-02 -5.54838292e-02 9.26077515e-02 8.47084331e-04
      -1.10160984e-01 -3.51084583e-02 2.55144178e-03 1.13694675e-01
      8.96102861e-02 2.07714345e-02 -1.25350803e-02 -1.61318853e-01
      -9.03254747e-02 -2.84649551e-01 -3.19236517e-01 7.90623054e-02
      1.62957311e-01 -1.56575024e-01 -6.23754784e-02 4.72010821e-02
      -2.57102072e-01 -1.70756523e-02 4.45846207e-02</_>
    <_>
      6.54983759e-01 -6.98208630e-01 4.04563844e-01 -4.10426617e-01
      -2.45479122e-01 2.97367692e-01 -1.42139524e-01 6.86962157e-02
      -6.02768250e-02 -2.95632649e-02 -9.29393619e-02 -4.85630557e-02
      1.16398580e-01 -9.43539888e-02 -5.05335703e-02 3.19993764e-01
      1.43856764e-01 -1.39893427e-01 -5.71726635e-02 1.97501004e-01
      -3.18940133e-01 -1.07136488e-01 -2.22821236e-01 1.26672611e-01
      -2.15804297e-02 7.92286396e-02 -1.82455301e-01 2.74493128e-01
      1.43625244e-01 -9.50671509e-02 1.02361105e-02 7.61024281e-02
      1.05905691e-02 2.29538996e-02 2.88154334e-02 -1.85883790e-01
      4.14638370e-02 -3.12196761e-01 -6.67774901e-02 -6.03380464e-02
      -1.48519948e-01 1.28645912e-01 -3.55726406e-02 -8.32797773e-03
      -1.54400572e-01 7.15423673e-02 -1.61387935e-01 -8.47563520e-02
      1.44330636e-02 1.20381173e-02 5.46083003e-02 -1.91904977e-02
      2.98763961e-01 -5.69441170e-02 -5.97167350e-02</_>
    <_>
      1.95441142e-01 -3.93646955e-01 2.14842513e-01 -3.09164822e-01
      -2.82191604e-01 9.58658814e-01 2.64544357e-02 -3.23618740e-01
      7.94088781e-01 5.77049971e-01 -8.98766294e-02 -3.88063602e-02
      4.04586881e-01 1.61500737e-01 2.82576978e-01 -8.17480013e-02
      8.79366323e-02 1.13361338e-02 -3.58836725e-02 6.11946508e-02
      1.08913913e-01 4.91535254e-02 1.79026853e-02 -3.89819629e-02
      8.38549137e-02 1.57822445e-01 -1.88056603e-01 -1.97497115e-01
      1.26258507e-02 3.15779597e-02 1.56423092e-01 -1.16282284e-01
      -1.42080933e-01 2.95990054e-02 -1.59527063e-01 1.27610922e-01
      4.38117310e-02 -7.22109675e-02 -9.01235826e-03 4.31528725e-02
      -6.21020980e-02 -4.70455810e-02 5.00700586e-02 1.27017626e-03
      -2.76734848e-02 -8.62559229e-02 -4.98435311e-02 -8.39037523e-02
      4.29369248e-02 -5.08258827e-02 1.79421902e-02 5.26016578e-02
      -8.18274692e-02 -1.01599526e-02 -8.36671144e-02</_>
    <_>
      4.99628037e-01 -6.41580999e-01 1.61548153e-01 3.59043956e-01
      -1.14873432e-01 1.60412863e-01 2.54314262e-02 3.73587273e-02
      7.67806452e-03 1.46772861e-01 6.79838434e-02 3.87183666e-01
      -1.13157574e-02 1.79139808e-01 7.82906413e-02 -1.81722850e-01
      -5.02895117e-01 -2.26312429e-02 -6.17733337e-02 5.52661940e-02
      8.00615922e-02 -1.14742041e-01 2.54566133e-01 2.15790749e-01
      2.75535583e-02 7.65156746e-02 1.65285334e-01 1.34087875e-01
      -2.73641199e-01 1.30175814e-01 1.83400109e-01 1.74935713e-01
      -1.94202036e-01 3.51965040e-01 -4.51638512e-02 1.68304160e-01
      -1.09786093e-01 -5.10473028e-02 3.61992680e-02 6.54303506e-02
      -2.47634333e-02 -3.36771160e-01 -4.26858485e-01 -4.87797819e-02
      5.20986365e-03 2.71113724e-01 1.52285472e-01 4.70311791e-02
      -1.40927076e-01 -5.63399754e-02 1.00591652e-01 1.88326880e-01
      -2.72497963e-02 -3.92835885e-02 -2.27338806e-01</_>
    <_>
      7.59855628e-01 -2.51666993e-01 1.02327123e-01 1.74461856e-01
      4.10957426e-01 2.09968910e-01 3.64510417e-02 -3.34217921e-02
      -3.91997367e-01 9.28173959e-02 2.17275411e-01 3.55829060e-01
      2.73558557e-01 2.90587395e-01 -8.69734399e-03 8.55139494e-02
      -6.34172698e-03 1.25235328e-02 -4.38951626e-02 2.77187049e-01
      -3.61245513e-01 -1.36870507e-03 2.67285019e-01 -4.07614022e-01
      -8.07522088e-02 -1.48711920e-01 6.25650361e-02 1.06448174e-01
      4.92447242e-02 2.89375365e-01 2.57986337e-01 1.12470098e-01
      2.55306214e-01 -6.88775852e-02 -2.95723498e-01 2.15808570e-01
      1.55073971e-01 1.83492765e-01 -1.65258065e-01 -7.59229735e-02
      -2.09743723e-01 -5.09939305e-02 9.33656394e-02 -5.39517589e-02
      2.91306823e-01 5.79035319e-02 8.43059644e-02 2.26351961e-01
      1.21538267e-01 1.40673235e-01 -3.33880708e-02 -2.00091824e-01
      5.04240505e-02 1.16262548e-01 1.41807385e-02</_>
    <_>
      3.43856633e-01 -3.85866404e-01 1.47457883e-01 7.06302300e-02
      -1.70102537e-01 2.00152528e-02 -1.10295974e-01 -6.13448657e-02
      2.48643205e-01 5.01286844e-03 -4.21894304e-02 -7.09443390e-02
      -8.68765488e-02 -6.08921610e-03 6.18206225e-02 -2.91185249e-02
      -1.05931863e-01 -2.59636372e-01 1.27894491e-01 1.95112988e-01
      -6.20496944e-02 5.76305836e-02 -1.41836300e-01 2.81241000e-01
      -1.86382830e-01 -5.04053384e-02 2.57800758e-01 3.18860590e-01
      1.60950884e-01 -2.01029316e-01 2.46099737e-02 1.58979058e-01
      -2.58749761e-02 7.47762173e-02 -5.35726026e-02 -2.06389010e-01
      -7.68512487e-02 3.91696304e-01 -8.30943659e-02 -1.31244674e-01
      -2.27219924e-01 1.20716885e-01 1.00486316e-01 3.79240736e-02
      1.70124486e-01 -1.20443657e-01 -8.64878297e-02 -6.02922030e-02
      -1.81929007e-01 -1.64850146e-01 -1.16123728e-01 -1.27481967e-01
      1.09370500e-02 1.04279652e-01 1.11227244e-01</_>
    <_>
      -6.88782632e-01 7.44063437e-01 -2.00067103e-01 -4.64557558e-01
      -2.06068233e-01 7.22093403e-01 7.32549950e-02 -1.05006685e-02
      1.47480309e-01 2.86174655e-01 3.40296090e-01 -1.17901228e-01
      -3.64288449e-01 8.18522051e-02 8.78044888e-02 -5.11890091e-02
      -1.42860562e-01 7.44945556e-02 -4.01416095e-03 -2.94650853e-01
      -1.70866579e-01 -8.81816223e-02 3.54613885e-02 3.06910183e-02
      4.90452945e-02 -1.28772438e-01 2.36146495e-01 -1.87931716e-01
      -7.22095370e-02 -1.45521322e-02 6.39735758e-02 1.98697984e-01
      1.81376070e-01 2.47581348e-01 -9.35772732e-02 1.90890511e-03
      2.09654659e-01 1.93532541e-01 5.01886010e-02 7.84130096e-02
      -2.06165329e-01 -2.54389673e-01 -1.26486033e-01 -5.93077540e-02
      -8.80537108e-02 2.83556968e-01 1.80581391e-01 1.21389322e-01
      -8.44890177e-02 1.06387198e-01 -1.37746215e-01 -5.44675514e-02
      1.09148018e-01 3.36131565e-02 8.55998471e-02</_>
    <_>
      -3.96432668e-01 9.84733582e-01 -5.35809577e-01 -8.78605485e-01
      -4.09627736e-01 5.28294384e-01 -3.34289342e-01 7.72266909e-02
      -2.68729210e-01 4.07808833e-02 8.81195590e-02 2.43724003e-01
      2.86901873e-02 2.76639462e-02 -1.48729250e-01 5.75763285e-02
      1.80845454e-01 1.20475233e-01 4.80093926e-01 -9.10861120e-02
      2.93856174e-01 -4.30551656e-02 6.42305911e-02 -2.31012657e-01
      6.94859922e-02 -1.22962907e-01 -7.56557658e-02 9.71337259e-02
      -4.41060126e-01 -1.45916983e-01 2.49837153e-02 -1.11049138e-01
      1.81569327e-02 -3.69643024e-03 3.13886225e-01 3.03824637e-02
      1.87425449e-01 -1.19868733e-01 -3.19018513e-01 -1.85875550e-01
      2.02689484e-01 2.07798630e-01 -2.86813170e-01 1.30972937e-01
      4.84580398e-02 -1.08972164e-02 -2.00155586e-01 -3.93727161e-02
      -1.10357814e-01 -7.06375539e-02 4.96294089e-02 6.16877386e-03
      4.21022363e-02 2.86224723e-01 1.94986820e-01</_>
    <_>
      1.33307230e+00 8.31525862e-01 6.02057993e-01 -5.17957866e-01
      8.51223469e-02 -3.05463910e-01 9.70206503e-03 -6.65645242e-01
      7.09614083e-02 1.20064288e-01 -3.93249206e-02 -5.43248653e-01
      5.09439409e-01 -3.17563802e-01 -4.42862689e-01 1.60851151e-01
      -2.47986332e-01 1.56308472e-01 1.67747796e-01 3.78692290e-03
      2.65021324e-01 2.63575554e-01 -2.80160785e-01 4.37520929e-02
      2.99799711e-01 -2.28818879e-01 1.96242988e-01 1.58045769e-01
      -1.00137249e-01 -2.65251417e-02 -2.48390213e-02 -7.92176649e-02
      6.36855066e-02 -1.31523702e-02 2.43706092e-01 1.54916927e-01
      1.46619026e-02 -5.59785515e-02 -1.86714649e-01 -1.36561945e-01
      3.19284320e-01 -1.32826909e-01 3.95162910e-01 3.88956554e-02
      -3.42033096e-02 1.75632969e-01 6.02649078e-02 5.75631000e-02
      -6.50137886e-02 3.12610388e-01 2.95685232e-01 -8.31180513e-02
      2.65850842e-01 -5.99652715e-02 -1.54988095e-01</_>
    <_>
      1.52885580e+00 8.35507572e-01 6.42643094e-01 2.23628372e-01
      -2.07586214e-01 -6.99451923e-01 -2.76802123e-01 -1.31795585e-01
      3.20486456e-01 7.75044924e-03 7.72502050e-02 -2.65216321e-01
      -3.59669060e-01 1.17997294e-02 1.28551856e-01 -2.16007531e-01
      1.17441803e-01 5.47109023e-02 2.54601598e-01 -9.99148339e-02
      8.19626451e-02 5.32173365e-02 -3.22058499e-02 1.79537401e-01
      -5.65005839e-02 -9.72114578e-02 -1.57775491e-01 2.98066318e-01
      3.48348320e-02 -5.64682391e-03 2.98154503e-01 -1.19785443e-01
      3.65638047e-01 -2.88847774e-01 -9.22693387e-02 1.57056779e-01
      -1.35908589e-01 2.14825198e-02 1.11271748e-02 -2.32883051e-01
      4.92380783e-02 5.97420409e-02 -6.28598630e-02 1.05600148e-01
      -2.75472969e-01 7.31286546e-03 4.78725284e-02 2.18634173e-01
      -1.15382843e-01 3.03016245e-01 -3.63461263e-02 2.06628948e-01
      -1.08300760e-01 2.22468004e-01 -2.16230765e-01</_>
    <_>
      8.21825087e-01 5.85372567e-01 7.33919799e-01 -5.45253932e-01
      -7.16697633e-01 -1.06850013e-01 7.85983205e-02 -2.23052818e-02
      6.29479662e-02 -1.93204015e-01 9.80340168e-02 -3.19188416e-01
      -2.74795502e-01 -3.09237272e-01 -9.22695547e-02 5.59938373e-03
      -1.91667825e-01 2.79199630e-01 -6.15220889e-02 5.93469571e-03
      2.93923710e-02 -1.29865319e-01 1.68731973e-01 1.59159258e-01
      -4.09215763e-02 1.94010720e-01 -1.68026090e-02 -3.63202058e-02
      -2.54852194e-02 5.00455350e-02 7.35752061e-02 6.81110546e-02
      2.16183081e-01 -4.75330688e-02 -1.27059937e-01 -1.62717640e-01
      -2.33557984e-01 5.09399474e-02 -1.82777271e-01 1.35002621e-02
      2.29108542e-01 -1.66232973e-01 -1.24491714e-01 -1.35577336e-01
      1.10900313e-01 2.18587043e-03 -1.85043603e-01 -1.39068201e-01
      -1.90695494e-01 -4.14157748e-01 2.75315762e-01 -1.21310167e-01
      7.28183314e-02 -2.67142635e-02 -1.40705630e-01</_>
    <_>
      1.14335775e+00 1.27587104e+00 1.04530883e+00 -2.32822850e-01
      -1.61097884e-01 6.68078288e-02 2.56522566e-01 3.16716582e-01
      -1.62551105e-01 -2.82086462e-01 -4.91198570e-01 -7.22827809e-03
      -1.03991814e-01 -5.22404127e-02 3.29941869e-01 -1.39388591e-01
      -8.35415125e-02 -2.58223945e-03 -4.89075989e-01 -3.28369290e-01
      6.30408823e-02 2.50396103e-01 2.02078223e-01 -5.36055863e-01
      5.45726158e-02 -9.66545343e-02 -1.09507799e-01 -1.63480416e-01
      -1.11663923e-01 -1.53513014e-01 3.35948146e-03 4.32435960e-01
      1.86776500e-02 1.40684456e-01 -5.33280242e-03 7.22252205e-02
      -1.85212836e-01 -1.25596626e-03 2.76008509e-02 2.06165031e-01
      -1.09629132e-01 5.40938377e-02 5.66935614e-02 1.11965977e-01
      -1.17708854e-01 -7.53256902e-02 1.94264427e-01 1.98461756e-01
      1.18787535e-01 -6.69410592e-03 1.39304146e-01 6.83271140e-02
      -4.33905572e-02 -1.08250275e-01 8.54572654e-02</_>
    <_>
      7.34972894e-01 1.25760818e+00 1.19690681e+00 -9.55050737e-02
      -7.26997852e-02 -3.19411397e-01 1.78101242e-01 1.66770056e-01
      3.66964757e-01 1.91160832e-02 1.75415590e-01 -3.65403354e-01
      -8.51192921e-02 8.14753100e-02 -1.03126526e-01 6.34577796e-02
      -1.32572802e-03 -2.22791120e-01 -2.53382116e-03 8.48026872e-02
      5.76142315e-03 8.59014839e-02 1.09934986e-01 -3.52593899e-01
      2.48258352e-01 -9.44369435e-02 3.26019377e-01 1.10541642e-01
      1.36131272e-01 -7.04315156e-02 1.06187649e-01 1.31750390e-01
      -2.36303315e-01 9.06305611e-02 7.08389655e-02 -1.32983416e-01
      1.25631645e-01 -1.37827471e-01 1.27351701e-01 2.45984811e-02
      2.72054449e-02 1.00632146e-01 2.96261231e-03 -2.14102834e-01
      6.10329546e-02 -2.18045890e-01 2.65278906e-01 -8.07455778e-02
      1.74266696e-01 -1.15492150e-01 1.60058364e-01 -1.15727983e-01
      -6.63182884e-02 -3.29296477e-02 -9.13143903e-02</_>
    <_>
      9.90546346e-01 1.95126757e-01 1.03174210e+00 1.10972404e-01
      1.27824098e-01 5.19323535e-02 -1.50440156e-01 -7.15597153e-01
      1.97988063e-01 6.29100725e-02 2.45864570e-01 2.60560960e-01
      -1.05750896e-01 1.08771712e-01 -4.42815840e-01 -2.55092327e-02
      1.72637641e-01 -2.26712316e-01 1.97893083e-01 -4.67198119e-02
      -8.10440928e-02 -2.58739293e-02 -4.37291488e-02 1.77804247e-01
      -8.69752988e-02 -6.73870221e-02 -3.73553187e-01 7.62250349e-02
      2.55654216e-01 2.95408547e-01 -2.02620491e-01 4.33493257e-02
      2.85473526e-01 1.45887539e-01 -6.38784319e-02 -2.44593590e-01
      -2.15392630e-03 9.22186300e-02 -9.47199985e-02 1.80353537e-01
      -2.75405701e-02 9.10705104e-02 2.17414787e-03 1.41048595e-01
      -1.75014868e-01 3.42226326e-01 1.45960689e-01 -3.59392047e-01
      3.28160137e-01 -5.82868271e-02 -5.75840436e-02 -3.69372894e-03
      -1.12235241e-01 4.48485464e-02 5.11314906e-02</_>
    <_>
      1.12591517e+00 -3.17790806e-02 5.95866323e-01 2.88539171e-01
      2.08097592e-01 8.25554691e-03 2.65949935e-01 -1.28410137e+00
      7.46511146e-02 4.48247969e-01 -2.06280664e-01 -1.20270252e-01
      6.44530416e-01 -3.02248120e-01 -5.89542449e-01 1.97865158e-01
      -1.59014091e-01 -4.99235243e-02 6.97604060e-01 -2.98232257e-01
      1.22191973e-01 -4.83386777e-02 -1.33002087e-01 2.84628183e-01
      -1.09550349e-01 -2.57995009e-01 1.80496737e-01 -1.24112228e-02
      8.33147913e-02 -8.39937478e-02 -2.94829667e-01 1.75921589e-01
      -8.76577348e-02 2.15018213e-01 1.88808364e-03 -2.06717085e-02
      -5.07406183e-02 -1.74476027e-01 -2.36083448e-01 3.77732539e-03
      -7.42285922e-02 -2.01695617e-02 -1.79869264e-01 -4.53436583e-01
      -4.29755479e-01 8.03238973e-02 6.11315295e-02 7.86908939e-02
      -5.54366894e-02 -1.71163701e-03 -1.66270077e-01 -9.29979905e-02
      1.08117715e-01 -2.19384152e-02 1.88797578e-01</_>
    <_>
      6.98431909e-01 2.46608868e-01 8.67742538e-01 2.69597232e-01
      1.96787715e-01 1.89515874e-01 -4.83254939e-02 -4.99677569e-01
      1.07658498e-01 1.89539623e-02 2.45412439e-01 5.76751351e-01
      -2.99580991e-01 -1.24923207e-01 -2.62501836e-01 1.44610882e-01
      4.25978363e-01 -3.23653907e-01 4.65660900e-01 1.39322281e-01
      -9.24999942e-04 3.24100964e-02 -7.92184398e-02 -1.49565667e-01
      -5.02415240e-01 -4.16820459e-02 -1.85647294e-01 4.61422712e-01
      -1.86764583e-01 -2.13980243e-01 7.15006515e-02 2.62975395e-01
      -3.32006305e-01 3.52064781e-02 2.05961093e-01 1.46056414e-01
      -7.86714852e-02 1.57805935e-01 -1.95289969e-01 2.77030785e-02
      9.00668204e-02 1.48282826e-01 2.61782587e-01 1.63016040e-02
      1.24537364e-01 7.55862668e-02 5.85481524e-02 1.48230091e-01
      -2.23010793e-01 -1.14784045e-02 -1.89286321e-01 -2.10403040e-01
      -3.27510573e-02 1.87267996e-02 -1.15258098e-02</_>
    <_>
      1.18810308e+00 -9.39692557e-02 1.06343210e+00 2.87958324e-01
      6.54085934e-01 -6.63154796e-02 6.98300749e-02 -1.99848354e-01
      1.91751048e-01 2.77516320e-02 -1.76389247e-01 1.19641531e+00
      -1.22650623e+00 2.36293674e-01 -9.95268971e-02 -2.37703651e-01
      3.42234284e-01 3.61937620e-02 -6.45342544e-02 3.69190305e-01
      8.70780572e-02 2.31189370e-01 1.78563297e-01 5.41189201e-02
      3.69787700e-02 -9.06801373e-02 -6.98012933e-02 -5.39881945e-01
      4.18016985e-02 2.03440934e-01 -2.75695860e-01 2.15811834e-01
      1.00122830e-02 9.91111025e-02 2.20800847e-01 1.63652435e-01
      6.57613501e-02 -1.66306987e-01 -9.16292705e-03 -1.01749316e-01
      -3.42056215e-01 -2.32404485e-01 -2.63650745e-01 2.11417213e-01
      -3.04921150e-01 -1.05012327e-01 -3.43035907e-01 -1.53733948e-02
      -2.39914525e-02 5.57794087e-02 8.09069052e-02 -2.76165634e-01
      1.44561678e-01 -1.23754717e-01 -1.02875069e-01</_></support_vectors>
  <decision_functions>
    <_>
      <sv_count>35</sv_count>
      <rho>-8.9344674959969561e-02</rho>
      <alpha>
        8.3278514211896792e-01 1.7684432619901835e-01
        6.1991160024437397e-01 2.8064868248336910e-02
        1.6972251002366068e-01 1.3792913139009236e-01
        3.0652228460455999e-01 3.9528521699065255e-01
        1.8137453632481337e-01 5.9506027524939353e-01
        4.4454949746577610e-01 4.6519157464149652e-01
        2.0016445734984140e-01 2.0391956053302349e-01
        6.8914778152630229e-03 7.9313874352566940e-02
        1.7519853366690007e-02 9.6306394493088657e-02
        2.6711183916321950e+00 2.2462657954265253e+00
        2.6910370256346818e-02 3.8220860852742172e-01
        1.9186078619155021e-02 9.8848258454852123e-01
        1.8183638886735205e-02 5.0197772908690841e-01
        -2.6717176057095793e-01 -1.2121013215105192e+00
        -3.2509998454552305e+00 -9.3592949915009127e-01
        -9.7583139346475528e-02 -4.8221863721981567e-01
        -2.1233480249150865e+00 -2.1488114374507581e+00
        -1.2935261127764921e+00</alpha>
      <index>
        0 1 2 3 4 5 6 7 8 9 10 11 12 13 14 15 16 17 18 19 20 21 22 23 24
        25 26 27 28 29 30 31 32 33 34</index></_></decision_functions></opencv_ml_svm>
</opencv_storage>
