<?xml version="1.0"?>
<opencv_storage>
<opencv_ml_svm>
  <format>3</format>
  <svmType>C_SVC</svmType>
  <kernel>
    <type>RBF</type>
    <gamma>8.9999999999999997e-02</gamma></kernel>
  <C>10.</C>
  <term_criteria><iterations>1000</iterations></term_criteria>
  <var_count>83</var_count>
  <class_count>40</class_count>
  <class_labels type_id="opencv-matrix">
    <rows>40</rows>
    <cols>1</cols>
    <dt>i</dt>
    <data>
      11111 11112 11113 11114 11115 11116 11117 11118 11119 111110
      111111 111112 111113 111114 111115 111116 111117 111118 111119
      111120 111121 111122 111123 111124 111125 111126 111127 111128
      111129 111130 111131 111132 111133 111134 111135 111136 111137
      111138 111139 111140</data></class_labels>
  <sv_total>921</sv_total>
  <support_vectors>
    <_>
      -6.38154745e-01 7.28491008e-01 -2.59538710e-01 -7.72550225e-01
      -1.58180937e-01 -2.80408859e-01 -2.75195807e-01 -3.33319008e-01
      -3.77166808e-01 -3.45869958e-01 -9.05540958e-02 3.32081504e-02
      9.08714011e-02 4.28001620e-02 -4.23432551e-02 -1.89192370e-02
      -2.21792404e-02 1.12563267e-01 1.18299037e-01 2.04836622e-01
      1.21047311e-01 -8.42109546e-02 -4.85183485e-02 7.47592226e-02
      -9.39141586e-02 -3.75526965e-01 1.13566238e-02 1.31945342e-01
      -1.88094191e-02 -2.65927553e-01 4.01352607e-02 -1.23568714e-01
      -2.53881440e-02 1.63858458e-01 -2.31760442e-01 -9.26165879e-02
      7.10690022e-03 5.75572513e-02 -1.13728255e-01 -9.29712057e-02
      -1.91264212e-01 -1.86253443e-01 2.56612957e-01 -2.96161324e-01
      -4.48105454e-01 1.01772189e-01 -1.47771001e-01 4.71624807e-02
      -1.88514039e-01 -1.35664910e-01 -9.30176210e-03 -6.83396831e-02
      -1.07800439e-01 -6.63808435e-02 -1.96030095e-01 4.88305166e-02
      -3.43273252e-01 1.10295281e-01 -9.21375975e-02 -6.12422302e-02
      2.72869140e-01 6.06100522e-02 -2.22610861e-01 -1.74618125e-01
      7.99609125e-02 -1.60939962e-01 -1.05811857e-01 -3.74681167e-02
      2.70352930e-01 -2.01303996e-02 -6.27863184e-02 6.10861704e-02
      -8.25278908e-02 -1.89017481e-03 -3.98715585e-02 2.34967154e-02
      -4.05630507e-02 -5.55458926e-02 1.12455808e-01 1.09493949e-01
      -2.01121774e-02 -1.20019063e-01 -7.89293721e-02</_>
    <_>
      -6.49150074e-01 8.20989549e-01 -1.85932487e-01 -5.78209221e-01
      -1.35426611e-01 -9.21080858e-02 -1.27247497e-01 -2.45478973e-01
      -4.20972317e-01 -2.72638172e-01 -1.89430237e-01 3.62224206e-02
      2.69162863e-01 -4.49995287e-02 -7.47152269e-02 -6.34572804e-02
      1.14940979e-01 6.87925518e-02 1.52248546e-01 1.54084802e-01
      7.16614276e-02 -1.00927372e-02 -4.70760912e-02 8.21495801e-02
      -2.43175372e-01 -1.79616660e-01 1.70481317e-02 1.37902170e-01
      -2.02468053e-01 -2.97042429e-01 -1.39125120e-02 6.12570643e-02
      -1.59115002e-01 6.22768812e-02 -1.29591838e-01 2.94314753e-02
      -1.35820378e-02 3.62397060e-02 9.29251835e-02 -8.35872665e-02
      -2.68504560e-01 3.76059785e-02 9.65089872e-02 -2.14866653e-01
      -4.51047391e-01 2.46773034e-01 2.59564489e-01 1.63866445e-01
      -1.57545611e-01 -1.45690233e-01 -7.72214234e-02 5.75425513e-02
      1.52428165e-01 2.37786304e-02 -2.66573932e-02 -5.57044894e-02
      -7.76094720e-02 -2.79830378e-02 -1.04085915e-01 -2.67981648e-01
      -1.20300781e-02 -3.39460038e-02 -1.27568573e-01 -4.25764322e-02
      4.00022678e-02 -9.80873704e-02 -6.86647072e-02 -1.42232180e-01
      1.79143324e-01 -5.89661151e-02 -9.72322673e-02 9.22531169e-03
      9.49572995e-02 -1.49972156e-01 -6.29232004e-02 -5.88211697e-03
      9.98336822e-02 2.25847308e-02 5.84747419e-02 -9.04507414e-02
      4.07792702e-02 -1.10387862e-01 -1.02809690e-01</_>
    <_>
      -8.01871061e-01 1.00976944e+00 -7.33742490e-02 -1.00106394e+00
      -1.27647489e-01 -4.04357910e-01 -1.66527376e-01 -3.70474517e-01
      -4.06112581e-01 7.40863234e-02 4.24400456e-02 9.37010944e-02
      -1.25851691e-01 4.08066921e-02 -1.00714520e-01 -1.39137432e-01
      3.38813057e-03 1.92433055e-02 -2.17387661e-01 -1.59825206e-01
      2.15810135e-01 2.16190621e-01 1.74019113e-02 1.77776784e-01
      -3.92514914e-02 -8.24184939e-02 -2.74891943e-01 -5.04460819e-02
      -8.29789042e-03 -1.15515321e-01 -3.02720547e-01 9.53873619e-02
      -4.43043411e-02 -2.30432302e-01 1.45623565e-01 3.01846147e-01
      2.14119777e-01 1.36139780e-01 -6.08570799e-02 -3.62425864e-01
      -5.67811541e-03 -1.56246006e-01 -1.97171345e-01 3.93006541e-02
      2.56440621e-02 2.39243150e-01 1.44731551e-01 4.08099815e-02
      -2.00082421e-01 -1.19579971e-01 -1.19504817e-01 3.79735008e-02
      6.20603152e-02 1.61837772e-01 4.65344563e-02 7.69597106e-03
      -5.70927896e-02 -9.11285728e-02 -8.56148750e-02 -1.42848520e-02
      9.08370018e-02 -1.66785754e-02 -2.31977068e-02 1.34991348e-01
      3.14124048e-01 -1.54265929e-02 6.83803111e-02 -7.49448985e-02
      -1.40284210e-01 6.74764663e-02 5.11223041e-02 1.94404304e-01
      6.98650554e-02 1.28679365e-01 -1.26930773e-01 -1.33210838e-01
      -3.61338854e-02 5.92730427e-03 -7.14544728e-02 2.21213907e-01
      -8.86754319e-03 5.10949157e-02 1.61386311e-01</_>
    <_>
      -8.02046418e-01 1.01309693e+00 -2.84267724e-01 -8.61695468e-01
      -1.58038452e-01 -4.30362672e-01 -1.10152625e-01 -4.29041862e-01
      -4.55252826e-01 -6.03959374e-02 1.56252235e-01 9.96005088e-02
      -1.40102759e-01 -2.31857434e-01 -1.04205079e-01 -1.13093160e-01
      -4.86162528e-02 -1.26183759e-02 -1.09458104e-01 1.46189090e-02
      1.80827498e-01 8.04987475e-02 9.36183333e-02 8.87865499e-02
      -1.15813866e-01 -1.98540553e-01 -2.70844400e-01 -7.88689256e-02
      4.47439998e-02 -1.76175132e-01 -1.71553418e-01 3.90731581e-02
      -8.78412947e-02 -1.23779379e-01 2.40371391e-01 1.94504783e-01
      1.00231692e-01 9.25129279e-02 4.30840813e-02 -4.13504094e-01
      -8.68253410e-03 1.09779760e-01 -1.42118558e-01 -4.67723683e-02
      -7.42916465e-02 1.92920983e-01 3.14955801e-01 9.59057733e-03
      -2.02221870e-01 -4.68381904e-02 5.45556508e-02 5.64567447e-02
      2.02968732e-01 2.16942355e-01 5.88336885e-02 -7.59869516e-02
      6.49710968e-02 -1.62572920e-01 -1.38862446e-01 -6.26417994e-02
      2.12736562e-01 -8.12921822e-02 -1.37081533e-03 -3.02460641e-02
      1.46616533e-01 -1.44460782e-01 9.81660038e-02 -8.48461092e-02
      -9.56809032e-04 1.58745781e-01 -2.69341022e-02 9.53556970e-02
      -3.55545594e-03 -4.36326079e-02 1.02647498e-01 -1.41641259e-01
      2.47040857e-02 -7.03015551e-02 4.28477749e-02 2.77907252e-01
      -8.30147788e-02 -1.62469596e-01 7.66179115e-02</_>
    <_>
      -6.81750894e-01 5.75715184e-01 4.05276418e-01 -1.02995288e+00
      1.12232091e-02 -1.83024988e-01 7.68567547e-02 -1.48587957e-01
      -3.08686554e-01 -1.17688604e-01 -2.39561517e-02 3.35217156e-02
      -4.74139825e-02 -5.30464239e-02 2.03324892e-02 2.16894131e-02
      2.47276463e-02 6.74954727e-02 -2.98423141e-01 -4.53409925e-02
      3.07456940e-01 9.61693153e-02 -6.55054674e-02 -1.67743266e-02
      2.17242703e-01 2.71788407e-02 1.23734046e-02 7.19944164e-02
      8.97729993e-02 -5.61186410e-02 -3.39165865e-03 -4.77935746e-02
      -2.03797817e-02 1.65816899e-02 5.55287413e-02 2.58714348e-01
      9.56948940e-03 2.01328352e-01 -2.02578846e-02 -1.02236979e-01
      -8.43569636e-02 9.91788656e-02 -5.62457889e-02 2.45807935e-02
      -4.17000428e-02 5.79690048e-03 -1.39933556e-01 -1.38830826e-01
      1.60296917e-01 -2.16760993e-01 3.94773297e-02 -1.31721482e-01
      -8.77842903e-02 2.64743835e-01 -1.01310253e-01 -4.07765619e-02
      -1.27229383e-02 9.91153568e-02 -3.44855525e-02 6.52363002e-02
      6.25524297e-02 4.58028615e-02 6.45559877e-02 -4.09778059e-02
      2.55273711e-02 1.14658484e-02 2.66987178e-03 -1.99406624e-01
      -4.88940552e-02 -1.17046528e-01 -1.36891892e-02 2.25166649e-01
      -2.11188227e-01 -1.65656731e-02 1.71384346e-02 -7.09019154e-02
      1.83415651e-01 -8.60397369e-02 1.89711973e-01 -6.98757842e-02
      1.25402201e-03 9.30310264e-02 9.22535919e-03</_>
    <_>
      -7.32727647e-01 6.42037272e-01 1.32525384e-01 -7.12782800e-01
      -1.38229981e-01 -1.13448165e-01 -4.48452055e-01 -3.17129880e-01
      -3.61241788e-01 -3.03515196e-01 -2.00079307e-01 5.46408296e-02
      1.11645848e-01 -2.75048148e-02 -5.78674227e-02 1.03007481e-02
      1.08124539e-01 5.68528399e-02 1.50815144e-01 1.32909045e-01
      3.37425736e-03 -1.91578954e-01 1.10131368e-01 1.79558262e-01
      -2.61755347e-01 -2.39945397e-01 -8.72570723e-02 1.03758678e-01
      2.79003739e-01 1.65564567e-01 -1.97409689e-02 8.93291831e-02
      7.89480433e-02 -6.48549050e-02 -1.55724257e-01 -1.91793635e-01
      -1.06927685e-01 -2.02334106e-01 7.63550401e-02 -9.58432481e-02
      3.15549374e-02 2.49389917e-01 1.04349077e-01 -5.67792403e-03
      -3.13253328e-02 6.67276839e-03 -7.17131868e-02 -4.94431555e-02
      -4.54796180e-02 2.70107239e-01 -3.29407863e-02 1.58098694e-02
      1.29470840e-01 -4.79541831e-02 -1.27403185e-01 3.20147015e-02
      -1.00679033e-01 -1.91868953e-02 1.47356868e-01 1.23212179e-02
      -5.62500730e-02 1.54560199e-02 -7.60693997e-02 2.22512018e-02
      -1.99922532e-01 1.68546382e-02 8.55264738e-02 -9.04224813e-04
      -1.28894448e-01 -4.69431728e-02 9.18949395e-02 -1.26096746e-03
      1.99548602e-02 -6.59929365e-02 1.68577321e-02 -7.35275773e-03
      -8.81229118e-02 2.74089314e-02 4.55911346e-02 8.15775916e-02
      1.94399208e-01 3.02350614e-02 -4.92309965e-02</_>
    <_>
      -7.87949860e-01 5.73978543e-01 2.16348425e-01 -7.51191854e-01
      -1.92912787e-01 -7.33698308e-02 -2.82174051e-01 -5.94063364e-02
      -2.99616277e-01 -2.83136219e-01 -1.93618149e-01 1.92732409e-01
      2.00958148e-01 3.28499451e-02 1.02227151e-01 2.31466405e-02
      1.40224740e-01 -2.02350412e-02 -1.20341010e-01 6.09815121e-02
      6.29755855e-02 5.36618493e-02 1.27170891e-01 7.16477484e-02
      -8.57175663e-02 -3.04224551e-01 4.28821072e-02 8.97344388e-03
      3.01623464e-01 -3.33287567e-02 -6.32851198e-02 -5.60526028e-02
      5.38840927e-02 -1.38413861e-01 -1.17006883e-01 -9.47658122e-02
      1.52606547e-01 4.81789708e-02 -1.19756222e-01 -1.01572284e-02
      -1.38095282e-02 1.90357715e-01 -2.00776026e-01 -3.12393606e-02
      -7.72981867e-02 6.57707751e-02 3.28870863e-02 8.61567780e-02
      4.40482907e-02 7.44307712e-02 1.10656217e-01 -2.48910055e-01
      1.50257731e-02 6.26353547e-02 9.06938165e-02 1.40251234e-01
      -2.14089692e-01 6.37567416e-02 7.63189718e-02 -8.20938870e-02
      -1.40518174e-01 -1.99786387e-02 -1.97184339e-01 1.78776875e-01
      -5.33383004e-02 -3.02793775e-02 1.45421758e-01 -5.59849292e-02
      4.20829132e-02 9.15085301e-02 -4.40662056e-02 1.27545476e-01
      -1.21201359e-01 -2.33661272e-02 7.09465966e-02 3.32470089e-02
      -5.73211797e-02 1.02684937e-01 -7.29233325e-02 -2.26466935e-02
      1.58684105e-01 -5.53875826e-02 1.62873399e-02</_>
    <_>
      -8.73391926e-01 7.13516235e-01 8.65529254e-02 -7.65260518e-01
      -1.37829915e-01 -1.29760370e-01 -3.27111125e-01 -3.33411366e-01
      -6.01666629e-01 -1.37023970e-01 -2.04724614e-02 1.49470583e-01
      1.67933572e-02 3.23775001e-02 1.10614017e-01 1.13847859e-01
      2.96880156e-01 -3.64260636e-02 1.76445931e-01 -3.87955494e-02
      1.34859249e-01 -2.30611145e-01 3.49800475e-02 2.10959837e-01
      -8.48706961e-02 3.19751561e-01 -3.22215676e-01 7.27221295e-02
      5.71128130e-02 -6.03774674e-02 7.41738677e-02 9.36474800e-02
      -1.39950320e-01 -1.39144018e-01 -2.30474859e-01 -5.33277914e-02
      -2.31732041e-01 -2.32104883e-01 1.17233850e-01 1.24512389e-01
      -5.33298217e-03 8.92985314e-02 1.46911159e-01 -1.54283762e-01
      -2.90026665e-01 -1.69409260e-01 -4.34490666e-03 -9.53898877e-02
      -2.64256865e-01 2.23234966e-01 5.60896620e-02 7.76443407e-02
      1.74543351e-01 1.35759460e-02 -3.60944904e-02 -7.96767026e-02
      -1.98775679e-01 1.38941571e-01 1.52741879e-01 1.18489556e-01
      2.74825450e-02 -7.94155672e-02 1.81972802e-01 -2.39953220e-01
      3.53833139e-02 2.34693095e-01 2.69720089e-02 -1.91497773e-01
      -3.76167148e-02 3.99433337e-02 1.57315247e-02 -1.37658998e-01
      -1.39404612e-03 1.47528261e-01 2.89954003e-02 1.81263372e-01
      -9.20851901e-02 5.66513762e-02 -1.14472635e-01 -7.56172510e-03
      8.46830979e-02 9.65916514e-02 -7.28546083e-02</_>
    <_>
      -7.60268927e-01 7.06224918e-01 1.87651858e-01 -9.77543533e-01
      -2.22045094e-01 -1.38247117e-01 -8.63461047e-02 -2.94033736e-01
      -4.03849602e-01 -1.31030187e-01 -2.45618910e-01 2.88757437e-04
      -2.75349822e-02 -1.14409007e-01 -6.95602968e-02 7.82087073e-02
      3.82019989e-02 1.81185454e-01 3.65111534e-03 2.32450888e-01
      8.49891677e-02 -1.28928185e-01 -1.31187782e-01 1.55401230e-02
      1.18204251e-01 -1.70456730e-02 -7.18725612e-03 2.77524918e-01
      1.22349881e-01 -1.34172440e-02 1.09754264e-01 -1.14217028e-02
      -4.65050228e-02 6.41585663e-02 -1.28229499e-01 -5.16138114e-02
      -6.72481805e-02 3.87258232e-02 -1.15486635e-02 -3.12091503e-02
      -1.42382294e-01 9.21024755e-02 1.24721199e-01 -8.25744867e-02
      -8.39896500e-02 -5.33911362e-02 4.61137630e-02 8.62608105e-02
      -5.35166152e-02 5.88632487e-02 1.50752649e-01 2.32702807e-01
      8.26918781e-02 1.11840166e-01 2.23402884e-02 -1.82910889e-01
      -1.16512656e-01 6.70019463e-02 -5.73646873e-02 5.48697412e-02
      1.03212185e-01 -9.54779144e-03 3.04385185e-01 -1.75916582e-01
      -1.67101156e-02 1.58974335e-01 1.46472067e-01 -7.57016847e-03
      -2.75955915e-01 -7.50263557e-02 -3.85234579e-02 -1.65205181e-01
      -8.95113498e-02 -8.68777279e-03 1.07035404e-02 5.13413809e-02
      2.16973305e-01 5.55128865e-02 -1.38919964e-01 4.29040752e-04
      2.97372174e-02 8.77021849e-02 -2.06822500e-01</_>
    <_>
      -8.97466123e-01 8.80355716e-01 -2.73247868e-01 -8.31721723e-01
      -4.85646203e-02 -3.65685910e-01 -2.62402326e-01 -3.51161540e-01
      -4.93551910e-01 -3.75293050e-04 -1.49150431e-01 1.12554170e-01
      -2.09694933e-02 -1.99451745e-01 -1.59754276e-01 -1.63676709e-01
      -2.64504313e-01 2.63339102e-01 7.09550828e-02 -3.63932252e-02
      2.85380006e-01 -1.88013427e-02 -3.46188694e-02 7.77964965e-02
      9.01220590e-02 4.10609730e-02 -1.12475872e-01 1.81846134e-02
      -1.75378427e-01 1.47275897e-02 3.37438397e-02 -6.70168400e-02
      -7.44666755e-02 -2.75687039e-01 -2.38496736e-02 1.27210803e-02
      -4.21664789e-02 8.42025802e-02 4.30394858e-02 -3.15130830e-01
      1.58305183e-01 2.35587224e-01 3.63655165e-02 -1.36990294e-01
      3.58190723e-02 1.80623993e-01 -9.58330184e-02 1.23574965e-01
      -6.51163682e-02 -1.73663814e-02 -1.00108087e-01 1.22379363e-01
      9.70016867e-02 2.54437447e-01 1.64585546e-01 -2.56509744e-02
      -2.80199468e-01 6.85340464e-02 6.39784709e-02 -1.54543981e-01
      1.20309219e-01 3.76416780e-02 1.40072450e-01 -3.22024643e-01
      -8.37040693e-02 5.87848872e-02 1.68332346e-02 5.91632072e-03
      -9.76130068e-02 2.21637860e-02 1.25253409e-01 -2.06457064e-01
      8.48484412e-02 2.00629622e-01 -9.09269508e-03 1.11143269e-01
      2.09206834e-01 -4.27620225e-02 -7.71729127e-02 -7.33100325e-02
      -7.58512244e-02 -2.92547718e-02 -3.13160792e-02</_>
    <_>
      -9.05826986e-01 7.93890238e-01 -1.09077543e-01 -7.48044550e-01
      -6.06064275e-02 -2.60604203e-01 -5.17942965e-01 -2.35301003e-01
      -4.01055753e-01 -1.00190111e-01 -7.73383677e-02 9.21391770e-02
      1.46669894e-01 -8.05277079e-02 -1.31440267e-01 -1.11435525e-01
      -2.78629184e-01 1.95079282e-01 -8.99660438e-02 1.29680708e-01
      2.00037345e-01 -1.83643810e-02 -1.87994123e-01 1.32926926e-01
      1.96409784e-02 5.73698618e-02 -1.84859142e-01 -7.95756578e-02
      6.18851446e-02 7.46448487e-02 1.99612781e-01 -1.99390396e-01
      -5.32914810e-02 -2.90847480e-01 8.70808363e-02 -1.68159492e-02
      -1.96859203e-02 -1.16879500e-01 1.93482444e-01 -1.66773088e-02
      1.95160747e-01 3.28757018e-01 1.01334780e-01 -1.00347936e-01
      -9.65787321e-02 2.07693174e-01 3.91833931e-02 -6.80684075e-02
      -3.69756371e-02 1.57961726e-01 -1.93188339e-02 1.38974801e-01
      5.86084276e-02 1.01082429e-01 -6.66419640e-02 -6.11559115e-02
      -1.30751058e-01 1.07043952e-01 3.17334503e-01 -1.36495888e-01
      -7.51200365e-03 -8.25522691e-02 1.60296872e-01 -2.25755155e-01
      -1.54198214e-01 2.19992355e-01 1.33128956e-01 9.10001025e-02
      -5.25741689e-02 -4.32519279e-02 -4.02014218e-02 -6.38395697e-02
      -1.91412121e-01 9.05717839e-04 7.29782321e-03 6.48012087e-02
      -7.31551200e-02 -1.30431220e-01 -2.22757459e-02 -2.95675751e-02
      9.89271030e-02 1.40661716e-01 2.87824497e-02</_>
    <_>
      -7.86921918e-01 5.96216440e-01 1.22743443e-01 -8.02472651e-01
      -7.99677670e-02 -2.89451182e-01 -3.19734842e-01 -2.17842087e-01
      -3.05323064e-01 1.85281951e-02 -6.23246022e-02 1.15686074e-01
      -6.74411207e-02 -3.72255035e-02 4.51494455e-02 -2.21001208e-01
      -1.43977655e-02 4.83265221e-02 5.72054684e-02 7.54027069e-03
      -2.73442771e-02 1.82916299e-02 5.87514304e-02 5.13969474e-02
      -9.32887718e-02 1.81310654e-01 -2.40889549e-01 -1.43654108e-01
      -1.21449577e-02 7.69839510e-02 -1.74381599e-01 1.37122385e-02
      3.98978218e-02 -3.71112674e-01 1.69067502e-01 3.74894850e-02
      2.99997833e-02 -2.41431147e-01 -1.04653619e-01 -1.82819143e-01
      1.50324732e-01 2.39095733e-01 -5.00474647e-02 -3.60253528e-02
      -8.69920775e-02 -2.50628173e-01 -1.70293823e-02 3.95625234e-02
      -1.73129767e-01 2.02540934e-01 -6.45406917e-02 -8.35698023e-02
      1.75608113e-01 -9.06954147e-03 -2.79757716e-02 -2.28424631e-02
      -2.90012777e-01 -1.60510272e-01 8.20406824e-02 -4.92533073e-02
      -1.04276083e-01 -1.01909734e-01 7.55709931e-02 -1.19083785e-01
      -1.62257463e-01 1.08186737e-01 -1.47968411e-01 2.10466776e-02
      -5.59759103e-02 -9.06754807e-02 -1.20236069e-01 -3.12569179e-02
      1.22766070e-01 -1.20358437e-01 1.88196734e-01 -1.16536394e-03
      -6.68312311e-02 3.96422483e-02 -6.26720786e-02 3.35998312e-02
      -1.06312692e-01 -3.17054391e-02 1.37473658e-01</_>
    <_>
      -9.50627089e-01 6.94845438e-01 9.51388031e-02 -6.92435622e-01
      -2.90519446e-02 -1.82994753e-01 -3.65268409e-01 -1.78031921e-01
      -2.33187720e-01 -7.58701644e-04 1.02530688e-01 2.41305605e-01
      -3.71255018e-02 -2.46686786e-01 1.45133018e-01 1.33026028e-02
      -2.05409586e-01 -5.15731946e-02 -4.46924753e-02 -9.62730348e-02
      1.39344305e-01 3.35376859e-02 1.95774242e-01 -7.92435312e-04
      1.01525083e-01 1.55444965e-07 -2.29289621e-01 -4.63881269e-02
      1.81141987e-01 2.15176880e-01 -1.07206451e-02 1.05863819e-02
      1.61513444e-02 -1.22499585e-01 -1.45857006e-01 1.03166707e-01
      6.56546652e-02 4.45831753e-02 3.23971771e-02 -1.22935079e-01
      8.93413052e-02 2.75504261e-01 7.65205473e-02 -6.25440180e-02
      -8.20413455e-02 -4.20898944e-02 5.93797714e-02 -1.37327472e-02
      2.46618465e-02 6.79466426e-02 -1.73833683e-01 -1.00564368e-01
      7.96119422e-02 -7.15744644e-02 -1.05489001e-01 -8.47676769e-02
      -9.93053466e-02 3.36715393e-03 -1.53285936e-02 -5.78152016e-02
      3.39407884e-02 -7.80752897e-02 -1.12214305e-01 1.51548371e-01
      -1.77511215e-01 5.67076467e-02 1.49255842e-01 -3.97918522e-02
      -5.52424267e-02 5.47563136e-02 -1.22679263e-01 4.08157483e-02
      4.07468081e-02 -2.20494181e-01 -8.32781121e-02 1.00743860e-01
      -2.50209063e-01 -4.66315225e-02 8.16911533e-02 1.85888216e-01
      1.41217737e-02 -3.39247175e-02 4.82402975e-03</_>
    <_>
      -7.55823076e-01 7.94580340e-01 2.36494225e-02 -8.45361531e-01
      -5.62483333e-02 -1.57007352e-02 -2.57370681e-01 -3.32569331e-01
      -4.89126891e-01 -3.20713259e-02 -3.74740154e-01 2.38974303e-01
      7.08552301e-02 1.88653320e-01 -2.09980056e-01 1.34111419e-01
      2.21913055e-01 9.06741023e-02 2.52241492e-02 7.41435122e-03
      -9.15053412e-02 -3.92823145e-02 8.32284018e-02 1.97275057e-02
      -3.48311901e-01 -1.18329227e-01 -8.48538503e-02 1.12716950e-01
      6.50039390e-02 -1.24126233e-01 -1.82219252e-01 -2.05031447e-02
      -3.09984654e-01 3.57928164e-02 -1.47801489e-01 -1.20145857e-01
      -1.02326259e-01 1.39301434e-01 1.02751449e-01 7.82836787e-03
      -6.33197352e-02 -1.31682441e-01 -2.31213406e-01 1.03067786e-01
      -6.36410788e-02 9.47736278e-02 2.54794836e-01 -4.06203642e-02
      -9.43551883e-02 9.88328606e-02 -1.00018315e-01 3.05575490e-01
      1.02079101e-01 -5.52778766e-02 -1.07829627e-02 2.45971024e-01
      2.91634295e-02 -2.73522884e-02 -1.55335486e-01 -1.11712538e-01
      6.27901638e-03 -4.45609093e-02 1.57834962e-02 -5.37769385e-02
      -4.64527309e-02 2.05664095e-02 1.14585333e-01 -1.06466085e-01
      -7.37079009e-02 5.00659496e-02 9.14800763e-02 -5.02466969e-02
      -1.26680344e-01 -1.39801994e-01 8.06862116e-02 1.47754833e-01
      5.21320775e-02 2.78532691e-02 -3.05644460e-02 -6.71227351e-02
      1.10042408e-01 -4.22291793e-02 8.84066746e-02</_>
    <_>
      -5.56830943e-01 3.37530345e-01 5.25265276e-01 -1.02837896e+00
      -1.44909993e-01 -2.22733542e-01 6.49823397e-02 -1.39055014e-01
      -1.69154346e-01 -2.66339611e-02 1.23856022e-04 1.07721567e-01
      -2.95323104e-01 -8.98777544e-02 -5.64994998e-02 -1.16217546e-01
      -1.24986462e-01 -5.29287420e-02 -4.21099924e-02 -2.53081147e-04
      1.84860438e-01 3.22014093e-03 3.55156399e-02 1.41312098e-02
      2.00885653e-01 1.68042257e-01 -4.54359166e-02 2.00822011e-01
      -1.59482304e-02 -1.50161535e-01 6.52003218e-05 -6.98360950e-02
      1.17973708e-01 -3.55395824e-02 1.62138209e-01 7.82357380e-02
      -3.73292863e-02 3.09170615e-02 1.55875012e-01 -6.45254925e-02
      1.52181953e-01 -6.84511885e-02 2.83987999e-01 -9.28756893e-02
      -4.64504547e-02 -1.47221282e-01 -1.15917735e-01 -5.79096340e-02
      -1.49930688e-02 -2.30392683e-02 2.02826574e-01 2.60684825e-02
      4.90037240e-02 1.64544150e-01 4.93629053e-02 -3.17765623e-01
      -3.97310965e-02 -1.04575261e-01 -1.21996775e-01 4.19914275e-02
      6.19996190e-02 -1.16475753e-03 -1.52496053e-02 8.23835507e-02
      5.19062094e-02 4.10933308e-02 4.77568544e-02 -1.34977639e-01
      -1.38614550e-01 -7.90980905e-02 -4.99352925e-02 9.03792772e-03
      -1.53501287e-01 1.73714802e-01 -3.38762477e-02 1.04352720e-01
      4.74996306e-02 -1.00534126e-01 8.36559236e-02 1.09287314e-01
      -7.25525543e-02 -1.19002178e-01 1.49295013e-02</_>
    <_>
      -6.46341562e-01 2.90727675e-01 5.46752930e-01 -7.23303795e-01
      -4.14493978e-02 -5.20548038e-02 -1.39085442e-01 -5.63770533e-02
      -3.05077910e-01 -2.41704836e-01 -1.36358112e-01 6.42210469e-02
      -2.33721197e-01 1.08457230e-01 7.08242059e-02 2.00962629e-02
      1.36474043e-01 -7.90440813e-02 -9.42922458e-02 7.77859762e-02
      -1.52802303e-01 -2.09217854e-02 4.59172726e-02 1.61269791e-02
      -2.88748927e-02 7.72913918e-02 -1.30051613e-01 -1.40290424e-01
      -8.49254504e-02 5.85558452e-02 -5.56964763e-02 2.35560417e-01
      8.06903765e-02 -1.51416231e-02 1.01254739e-01 -1.18087344e-01
      -1.73068523e-01 -4.30728830e-02 1.39779821e-01 2.08850250e-01
      -1.01463012e-01 -3.06237452e-02 1.11693300e-01 -1.39721483e-01
      2.15900503e-02 -1.49414511e-02 4.65044565e-02 -6.18049242e-02
      1.44758672e-01 1.78433016e-01 1.06414258e-01 9.21850279e-02
      2.16281608e-01 -8.01903829e-02 9.29874703e-02 1.25678614e-01
      6.60290867e-02 -1.27175904e-03 -4.03603801e-04 4.38301302e-02
      -1.75276160e-01 1.26705900e-01 6.09503640e-03 1.22430071e-01
      4.15629223e-02 -4.03708592e-03 -5.56479469e-02 4.21924964e-02
      -8.31549242e-02 -2.28603687e-02 2.35503372e-02 6.21332973e-02
      7.35184029e-02 4.76988778e-03 -2.02013161e-02 3.17039527e-02
      1.39492527e-01 -2.36841632e-04 6.45054877e-02 -5.41252978e-02
      -8.82396922e-02 1.24887906e-01 -1.02896532e-02</_>
    <_>
      -6.77852988e-01 3.57740611e-01 5.33431590e-01 -6.48758829e-01
      -2.53024921e-02 -1.43501118e-01 -1.94343388e-01 -6.30758852e-02
      -2.89444685e-01 -1.54093048e-02 -2.45679580e-02 2.80390352e-01
      -8.12033564e-02 -1.64106742e-01 2.09536571e-02 5.33369556e-02
      -2.74674571e-03 5.51102869e-02 2.48868074e-02 -6.73837587e-02
      -5.64701892e-02 8.62021893e-02 8.66915882e-02 1.69427749e-02
      -7.25668855e-03 3.04698080e-01 -1.57262400e-01 -4.58441153e-02
      -1.44960312e-03 1.35251567e-01 -1.20002115e-02 6.51770979e-02
      7.97996968e-02 -1.57748103e-01 3.66473421e-02 -8.05904903e-03
      6.56855181e-02 -1.70889333e-01 2.07446188e-01 -1.12954585e-03
      1.19117238e-01 1.43528238e-01 -5.56173474e-02 2.34443657e-02
      1.78015918e-01 8.62202570e-02 -5.37620708e-02 1.34464890e-01
      1.77226603e-01 -9.14723277e-02 1.31407380e-01 -7.68455304e-03
      6.68018758e-02 8.66196975e-02 1.25979185e-01 -8.13192502e-03
      -1.88877955e-02 -1.04862198e-01 -1.56732020e-03 -1.42867699e-01
      6.33102059e-02 -4.11463989e-04 6.97874203e-02 5.90973273e-02
      -7.15124458e-02 -6.28968477e-02 -9.94601324e-02 -9.51995626e-02
      -1.03835277e-02 -2.40609832e-02 -1.10822961e-01 -5.45632914e-02
      -8.40010773e-03 1.14202738e-01 3.59188132e-02 -8.83237645e-02
      5.44318855e-02 7.51632378e-02 -1.49439827e-01 4.12041433e-02
      -1.16188899e-01 1.09676749e-01 -1.14499852e-01</_>
    <_>
      -4.06911105e-01 5.55201666e-03 1.02594209e+00 -7.22743988e-01
      -2.45739475e-01 -2.68278271e-01 -1.21106140e-01 1.28440887e-01
      -2.27951482e-02 -1.34547383e-01 -7.28170329e-04 -2.73181628e-02
      2.29327902e-02 2.17754743e-03 6.81246221e-02 5.95161766e-02
      1.41316742e-01 -4.13476489e-02 1.26077039e-02 8.79106820e-02
      -2.67757401e-02 -2.08644778e-01 -1.12936653e-01 5.23778386e-02
      8.80460162e-03 2.43440177e-02 8.41648355e-02 7.76095092e-02
      -5.84872253e-02 1.13532171e-01 1.68156996e-02 1.69328731e-02
      8.01619589e-02 -5.84463552e-02 9.61850360e-02 -4.58823554e-02
      -3.32233757e-02 -8.19852352e-02 -8.20733383e-02 1.94352344e-02
      1.38298422e-01 -7.86143094e-02 -7.61179626e-02 3.51265669e-02
      4.82689776e-02 -8.23035277e-03 2.29417812e-03 3.08399275e-02
      6.80667758e-02 8.29009116e-02 4.46623452e-02 8.84076674e-03
      -4.39307429e-02 3.46922688e-02 1.00096494e-01 7.70013686e-03
      -6.62283674e-02 1.06145948e-01 4.41291602e-03 3.60544175e-02
      -4.23848405e-02 1.18915565e-01 -8.48637521e-03 1.52451068e-01
      1.32622138e-01 -8.66504163e-02 -2.93415431e-02 1.06621809e-01
      -2.42708959e-02 1.46571636e-01 6.24269322e-02 -8.44085217e-02
      -9.10628513e-02 8.95830691e-02 -7.17043355e-02 -2.26924300e-01
      1.69994012e-01 5.96680231e-02 1.21392988e-01 4.68652323e-02
      -1.00862071e-01 -4.82408442e-02 4.61805705e-03</_>
    <_>
      -6.04018211e-01 9.81028005e-02 8.23521256e-01 -6.78177059e-01
      -5.14949709e-02 -2.20528468e-01 -1.69110075e-01 1.50508642e-01
      -9.42134485e-02 -1.35804385e-01 -7.61556551e-02 -3.03741731e-02
      -2.46715453e-02 -1.28491800e-02 1.91289708e-01 5.94646186e-02
      8.48795846e-02 -5.59262857e-02 -3.21145728e-02 -3.03051638e-04
      4.63128835e-02 -1.99521169e-01 -1.67210653e-01 3.20840478e-02
      1.00097992e-01 -1.68280452e-02 8.39115009e-02 9.47191045e-02
      5.11409268e-02 1.35504559e-01 3.92278805e-02 -2.71561407e-02
      -3.06990743e-02 4.26509939e-02 -1.16658255e-01 2.39000246e-02
      6.47903085e-02 3.73184048e-02 2.15698108e-02 1.48748383e-01
      5.63648902e-02 -3.40735950e-02 -2.98259724e-02 -5.02580889e-02
      -3.82857323e-02 -1.31535500e-01 -2.10180849e-01 -4.29090820e-02
      9.19451788e-02 4.14539948e-02 1.01243332e-01 -1.24513745e-01
      7.29950294e-02 6.70088977e-02 6.92537427e-03 -2.59227082e-02
      -8.08343198e-03 3.36232968e-02 1.04439020e-01 2.05544174e-01
      -3.38492692e-02 2.65562952e-01 -2.10372299e-01 -8.79584998e-02
      5.84132485e-02 -1.13736995e-01 -4.27161977e-02 1.14569351e-01
      -1.68779809e-02 1.20068982e-01 1.17560811e-01 1.08260019e-02
      5.70616983e-02 7.79345706e-02 4.26219106e-02 -1.15642354e-01
      1.33976312e-02 -1.05665416e-01 1.69411227e-01 2.49025803e-02
      -7.80642256e-02 -1.36595173e-02 1.54230714e-01</_>
    <_>
      -6.44067764e-01 3.29577178e-01 3.97583395e-01 -7.89491773e-01
      2.11067554e-02 -2.07070798e-01 -2.80371815e-01 -1.00416176e-01
      -3.76650304e-01 -2.35459343e-01 -1.57955199e-01 9.48343873e-02
      -4.08200622e-02 6.31424487e-02 1.51957050e-01 1.35792762e-01
      1.18536197e-01 8.86522233e-03 1.70814231e-01 2.56987691e-01
      1.06744294e-03 -5.07997423e-02 1.22139484e-01 5.05696498e-02
      2.83244289e-02 -1.64918914e-01 -1.05685212e-01 8.17676261e-03
      -1.44165367e-01 -7.65678734e-02 -2.97892913e-02 2.09722027e-01
      1.89046681e-01 -1.01614438e-01 2.77079698e-02 -2.44358063e-01
      -1.62172183e-01 -1.36509806e-01 -4.86833006e-02 1.96930051e-01
      3.16536911e-02 -7.09329993e-02 9.51725245e-02 -6.29472435e-02
      1.02758653e-01 -1.13292933e-01 -1.38075426e-01 -6.80156797e-02
      2.57837772e-02 2.02861398e-01 1.32027701e-01 -1.92960873e-01
      -1.53268054e-01 3.67540941e-02 -4.48155329e-02 -2.72102021e-02
      -1.76796511e-01 1.46851931e-02 1.25161901e-01 3.38193495e-03
      -1.36764541e-01 -1.01589210e-01 3.59746404e-02 4.90039550e-02
      -5.93741015e-02 9.34268907e-02 3.68710756e-02 -4.89596045e-03
      1.08783811e-01 2.62763817e-02 -6.01287186e-02 -3.11900303e-02
      -4.12654653e-02 4.47054245e-02 -1.56440847e-02 9.63762626e-02
      -7.71950409e-02 1.16122872e-01 -6.51408955e-02 1.96435869e-01
      9.70579535e-02 -7.59155601e-02 -2.80117970e-02</_>
    <_>
      -6.39226556e-01 2.40183264e-01 3.53696942e-01 -7.29164839e-01
      -1.72105953e-01 -2.14971408e-01 3.78657915e-02 -1.87985137e-01
      -2.79001802e-01 -3.42470586e-01 -7.64298663e-02 1.67694375e-01
      -1.12585776e-01 -1.93982333e-01 6.94441572e-02 1.63111180e-01
      1.67592913e-02 -1.06420824e-02 -5.85106798e-02 2.84809191e-02
      -1.32294809e-02 -3.02563570e-02 -1.17764093e-01 -4.35617529e-02
      -2.95936950e-02 -2.30424613e-01 1.02074847e-01 6.60808831e-02
      -9.82052013e-02 -1.89484924e-01 -1.22940168e-01 9.18022767e-02
      4.91921902e-02 8.85364339e-02 1.16207734e-01 1.99643940e-01
      -1.06739379e-01 2.15691719e-02 -9.30123106e-02 -1.34626217e-02
      -2.30726749e-01 -8.07315186e-02 8.24445263e-02 3.55352871e-02
      8.11559632e-02 3.62949930e-02 -9.91634652e-02 -7.93230087e-02
      -1.16936646e-01 1.52217194e-01 2.06808522e-02 1.72543675e-01
      6.23682849e-02 4.60175313e-02 9.70617905e-02 1.81800574e-01
      7.02511966e-02 -1.32997200e-01 -7.88500607e-02 -5.65364696e-02
      -2.53195055e-02 1.06341261e-02 1.31956935e-01 4.40419279e-02
      4.89656590e-02 -7.05692694e-02 6.24167174e-02 1.51253690e-03
      2.58674491e-02 5.32405749e-02 -1.07342899e-01 1.50744794e-02
      7.32339397e-02 -4.83950004e-02 5.40437438e-02 4.64646071e-02
      7.27968439e-02 6.46550208e-02 2.62921631e-01 7.30677247e-02
      -1.22907615e-04 -1.32389560e-01 -5.48552200e-02</_>
    <_>
      -7.23765910e-01 5.07736862e-01 4.79463696e-01 -6.75519109e-01
      3.99982035e-02 2.28532450e-03 -1.37451231e-01 -1.47542700e-01
      -3.16329896e-01 -1.42380744e-01 -1.72834814e-01 1.04191050e-01
      -6.65078312e-02 -2.55340040e-02 7.67299905e-02 6.87453523e-02
      3.32472958e-02 -1.64281324e-01 -4.04043570e-02 -8.60435888e-02
      -7.97755644e-02 -9.21297371e-02 -1.35435224e-01 -5.00534801e-03
      -1.27237305e-01 -2.44661700e-02 -3.22942249e-02 -9.00957137e-02
      -7.85401836e-02 -1.19903870e-01 -1.92441359e-01 2.01464325e-01
      -1.03748344e-01 7.29472712e-02 9.08084661e-02 -1.18802622e-01
      -7.62219578e-02 -1.08079247e-01 -1.84305795e-02 1.27710462e-01
      -1.59713253e-01 -1.61551517e-02 2.02368170e-01 3.52268219e-02
      1.12598866e-01 3.13720442e-02 -9.31735486e-02 -4.83862460e-02
      8.18202868e-02 6.20326623e-02 6.21582242e-03 2.20802486e-01
      9.97284278e-02 -5.07254563e-02 2.67816693e-01 1.77402094e-01
      1.62527617e-02 -5.33214957e-02 -9.73226875e-02 4.55407090e-02
      -2.22359046e-01 -3.73594090e-02 2.73565780e-02 -4.46174666e-02
      1.20388076e-01 -3.15567441e-02 2.11786199e-02 4.38948860e-03
      1.16174854e-01 -4.40652147e-02 -2.53927968e-02 -1.97333872e-01
      6.61970861e-03 1.14028804e-01 -5.55249155e-02 3.21963876e-02
      -7.62230083e-02 -4.85347286e-02 8.84833839e-03 -1.51776433e-01
      -1.02810778e-01 6.75685555e-02 1.50249943e-01</_>
    <_>
      -6.50217593e-01 3.10702957e-02 8.23594928e-01 -8.02100897e-01
      -1.92642584e-01 -1.99935719e-01 -7.22362027e-02 -1.05336301e-01
      -1.50515780e-01 -7.66062140e-02 -1.29353762e-01 2.28865698e-01
      -7.96256289e-02 -1.28863482e-02 -3.47815529e-02 7.57726878e-02
      -7.95672983e-02 -1.08129784e-01 -8.40822384e-02 1.17865697e-01
      5.74251115e-02 1.18469507e-01 -9.83966365e-02 -9.48679447e-02
      1.54406205e-01 -5.41138835e-02 1.31885692e-01 2.21800786e-02
      -5.49470894e-02 -5.18211313e-02 -3.54321674e-02 1.00940913e-02
      -6.40212223e-02 -6.71901777e-02 1.90273494e-01 1.92313507e-01
      -9.45247561e-02 2.55420133e-02 -3.46432962e-02 -2.13737771e-01
      4.80865827e-03 -5.33937663e-02 -6.56572580e-02 1.30728200e-01
      1.36185616e-01 9.28264856e-02 3.56038325e-02 -4.22359519e-02
      -2.56254338e-02 -8.19493309e-02 -1.76160902e-01 -9.52923596e-02
      -9.02071372e-02 1.05208091e-01 1.18737832e-01 7.04170614e-02
      2.27183402e-02 7.57582560e-02 -1.36199057e-01 2.44080983e-02
      -8.10939893e-02 7.11704195e-02 -9.34106782e-02 -2.76508722e-02
      1.33665353e-01 -6.32325755e-05 1.26003101e-02 9.56809614e-03
      1.61077306e-02 -2.35053543e-02 -3.56569663e-02 5.62323211e-03
      5.31274118e-02 -4.65376340e-02 -1.12283498e-01 -3.83800976e-02
      -3.47497202e-02 7.90310651e-02 1.36445209e-01 -1.93491951e-01
      -8.95682722e-02 5.89213595e-02 7.04893097e-02</_>
    <_>
      -8.18591356e-01 2.82612592e-01 5.15301406e-01 -8.77014518e-01
      1.67974532e-02 -3.60917300e-02 -2.36824721e-01 -1.05515681e-01
      -1.67418033e-01 -1.59364223e-01 7.68008828e-02 1.24928363e-01
      -3.67233045e-02 1.55752093e-01 1.45758074e-02 2.28549078e-01
      7.19907656e-02 -1.25465855e-01 -8.84009153e-02 -5.74875213e-02
      -2.32368067e-01 2.24959794e-02 4.08429652e-02 -5.85845523e-02
      -6.18182905e-02 -1.07281581e-01 1.19723668e-02 -1.18957773e-01
      -8.98971036e-02 -2.78369971e-02 -2.54058428e-02 -1.35743676e-03
      -1.91610649e-01 6.00436842e-03 8.37059841e-02 -1.38489038e-01
      3.41521539e-02 -5.50481863e-03 9.95398220e-03 1.88478544e-01
      6.20338321e-02 -1.47825584e-01 -1.41675547e-01 1.76672608e-01
      1.27326146e-01 8.62283856e-02 1.63888678e-01 7.72151165e-03
      -1.00596204e-01 8.75997078e-03 -9.81512144e-02 1.18693136e-01
      -1.61116853e-01 -7.91793838e-02 -7.46971294e-02 6.38007522e-02
      8.93683508e-02 4.07930464e-02 5.77173829e-02 6.53322265e-02
      -2.21092179e-01 1.10053062e-01 -1.80291645e-02 3.19745280e-02
      -7.98506960e-02 -7.57759809e-02 5.17291725e-02 1.62200987e-01
      6.70707077e-02 5.84974512e-03 1.61331028e-01 -2.29904857e-02
      -1.93735622e-02 -2.37956494e-02 1.00264959e-01 1.58199698e-01
      -1.21105269e-01 2.94360053e-02 -3.20881382e-02 -1.85152009e-01
      -1.86036065e-01 -1.05352104e-02 2.36895345e-02</_>
    <_>
      -6.39104128e-01 3.32957387e-01 6.40333652e-01 -7.79278874e-01
      -1.62952378e-01 -1.76463380e-01 -1.71588987e-01 -1.67805329e-01
      -1.93149403e-01 -1.89191788e-01 2.95477867e-01 1.90558448e-01
      -1.03304386e-01 -1.17135793e-01 1.36739060e-01 2.11190224e-01
      -9.32731330e-02 -2.08818883e-01 -1.11170188e-01 1.18854716e-02
      -4.27727550e-02 -1.21461153e-01 -3.94355245e-02 -5.63070960e-02
      1.51051143e-02 1.06405899e-01 5.44808395e-02 -6.14338694e-03
      -2.17722636e-02 -7.86138475e-02 -3.78011316e-02 -7.63160661e-02
      -2.39966176e-02 -2.15648524e-02 1.73641279e-01 -1.32012680e-01
      1.98831961e-01 -6.98053911e-02 -2.38280326e-01 4.15010974e-02
      3.71703804e-02 1.26186624e-01 -9.75682437e-02 3.42734642e-02
      7.72430375e-02 1.51672550e-02 1.71382695e-01 2.37518519e-01
      -1.25450671e-01 1.37830511e-01 1.39068022e-01 4.65855934e-02
      -8.45525693e-03 -6.71881891e-04 -1.54597173e-02 5.47164045e-02
      4.38705422e-02 -1.27246208e-03 -6.16986193e-02 -7.96918571e-03
      -8.89239833e-02 8.27237740e-02 -5.23174815e-02 -2.21155316e-01
      4.50436249e-02 -2.75070816e-01 -4.82850857e-02 2.47164685e-02
      6.27872348e-02 3.72066908e-02 7.18052760e-02 -2.60518909e-01
      1.00697847e-02 -3.55526060e-02 1.00704752e-01 8.78057778e-02
      -1.28972977e-01 -1.33051291e-01 -7.60444440e-03 -4.69883308e-02
      -7.63613805e-02 1.29072726e-01 -3.15720849e-02</_>
    <_>
      -7.85058677e-01 7.89864063e-01 -2.17669010e-02 -8.33991349e-01
      -1.24448411e-01 -1.76919013e-01 -1.89045966e-01 -2.74685413e-01
      -2.71534741e-01 -2.76352372e-02 -1.06799556e-02 2.23182902e-01
      -1.08742937e-01 -4.27250057e-01 -1.55011285e-02 9.54470485e-02
      -8.86782557e-02 8.31677169e-02 1.37535259e-01 -2.94902951e-01
      -3.97050637e-04 -1.34400368e-01 1.63169429e-01 -1.35015175e-02
      2.81524602e-02 1.65276110e-01 -2.02254847e-01 -7.78127685e-02
      -5.11231236e-02 1.08941413e-01 7.36553967e-02 -4.78207618e-02
      -1.08068928e-01 -6.38799369e-03 1.08745717e-01 1.19840680e-02
      -1.08582668e-01 6.76670372e-02 9.57857668e-02 -2.12165643e-03
      1.48105115e-01 2.29352057e-01 1.29961714e-01 -1.56325102e-02
      1.83957089e-02 1.84650227e-01 1.47800490e-01 1.14041962e-01
      9.44110453e-02 4.97486852e-02 1.25437647e-01 3.48664969e-01
      3.10670845e-02 -1.08570941e-01 -1.28627747e-01 -1.07516512e-01
      -8.66601095e-02 -1.38918638e-01 -7.72217885e-02 3.32080238e-02
      8.79357308e-02 -2.31887400e-02 2.98494607e-01 1.32976487e-01
      -2.05128431e-01 4.21821810e-02 -1.20482296e-01 3.91405374e-02
      -1.10364422e-01 7.59181008e-03 4.50927019e-02 -1.53301671e-01
      1.56686977e-01 8.79010633e-02 -8.86172280e-02 7.28683099e-02
      2.35574275e-01 8.28127488e-02 -1.04941666e-01 1.58181921e-01
      -5.04278652e-02 -4.77840640e-02 -4.04490866e-02</_>
    <_>
      -9.32363629e-01 5.13131082e-01 1.83217928e-01 -7.58682549e-01
      -9.15435851e-02 -2.15949759e-01 -4.37827073e-02 -2.82687753e-01
      -2.93073475e-01 -1.17407635e-01 -2.61514261e-02 1.46491915e-01
      -2.62365546e-02 -4.06285226e-01 4.30377759e-02 -1.83965653e-01
      -1.46388989e-02 8.98116231e-02 9.45731103e-02 -2.19888285e-01
      5.15656024e-02 1.71849549e-01 -6.51789755e-02 1.20459966e-01
      2.60853302e-02 3.37346107e-01 -2.70324051e-01 -1.30374596e-01
      -7.00843260e-02 2.17765495e-01 -1.57298930e-02 -1.09354965e-01
      1.20837286e-01 -3.95581454e-01 4.72478308e-02 1.13768734e-01
      -3.50855999e-02 -1.75318465e-01 1.52935892e-01 -5.49893565e-02
      2.92058855e-01 2.83285826e-01 1.47922426e-01 -1.85996637e-01
      1.65375307e-01 1.55516684e-01 1.46656528e-01 -9.85821933e-02
      -1.72991544e-01 1.40803874e-01 1.52923197e-01 1.80830851e-01
      2.65790015e-01 1.17508054e-01 -2.56756749e-02 -2.20086783e-01
      -1.61639631e-01 -5.69578856e-02 9.77085605e-02 -1.77282155e-01
      -5.14894687e-02 -5.11902906e-02 2.17996627e-01 1.37094811e-01
      9.59422290e-02 1.96163923e-01 -2.38584969e-02 -5.03007434e-02
      -6.29506260e-02 1.35927290e-01 1.26626834e-01 2.05865018e-02
      9.40268673e-03 -3.75620611e-02 3.23210247e-02 -8.36251676e-02
      1.13452718e-01 4.61129397e-02 -1.35343552e-01 2.05811307e-01
      6.61493838e-03 8.24117810e-02 1.54765472e-01</_>
    <_>
      -7.02533066e-01 1.88905165e-01 8.44525635e-01 -9.53760028e-01
      -1.08799070e-01 -3.00589353e-02 -6.00524135e-02 -3.74631956e-02
      -2.26762593e-01 -2.27159157e-01 1.35386586e-01 1.04171723e-01
      -2.32869163e-02 -1.61491007e-01 1.65269092e-01 1.00445509e-01
      -1.00254774e-01 -6.70115426e-02 -5.80943711e-02 2.85283159e-02
      -3.16404812e-02 -4.05414179e-02 -7.95193017e-03 -1.19140342e-01
      1.52806997e-01 -3.12912427e-02 -3.30241472e-02 -7.30031207e-02
      -1.30771786e-01 5.22403717e-02 1.84373319e-01 9.34247077e-02
      1.82812110e-01 -1.15089968e-01 1.23412594e-01 2.66285352e-02
      6.55413792e-02 -8.38434324e-02 -8.61264467e-02 -5.71766570e-02
      1.92327437e-03 -1.65563345e-01 9.16252583e-02 -5.64250834e-02
      7.03810677e-02 -7.62134194e-02 -4.52145524e-02 1.07491553e-01
      8.27517360e-02 1.26975149e-01 6.61951154e-02 1.64726272e-01
      1.26426183e-02 7.11936727e-02 -9.21294466e-02 -2.35508587e-02
      -9.14373063e-03 1.74352992e-02 1.38644442e-01 -3.84558700e-02
      1.44679239e-02 1.14702784e-01 2.54285820e-02 7.43607283e-02
      8.76313522e-02 1.09952442e-01 7.61279538e-02 7.84405470e-02
      -1.01717122e-01 4.97614630e-02 -4.62970436e-02 3.27946525e-03
      -1.79800857e-02 -5.41867651e-02 6.49630427e-02 -4.81257476e-02
      -3.44681442e-02 7.48725086e-02 -8.60736072e-02 9.53178778e-02
      -1.40716219e-02 7.74969831e-02 1.63007155e-01</_>
    <_>
      -6.60726964e-01 2.02056348e-01 7.45478213e-01 -8.51401687e-01
      -1.06131680e-01 -1.75670609e-01 1.06365159e-01 -6.06209598e-02
      -1.26843184e-01 -7.85437822e-02 -3.67755406e-02 1.84739545e-01
      -2.86587924e-02 -1.85697481e-01 1.27882108e-01 1.19241610e-01
      3.07938792e-02 -7.54823834e-02 -8.40678886e-02 8.64519551e-02
      5.94551936e-02 -1.90388616e-02 -2.32764930e-02 -4.47976813e-02
      1.58639103e-01 1.40278131e-01 -1.31153300e-01 -5.90854287e-02
      2.49471907e-02 6.04559220e-02 -1.60546154e-02 -3.93786142e-03
      1.29245743e-01 1.38500884e-01 1.08048052e-01 -1.83458067e-02
      -1.35341629e-01 4.87708813e-03 1.39159575e-01 -8.20789486e-02
      9.62414071e-02 3.53591889e-03 7.19483644e-02 5.27446382e-02
      1.58858284e-01 -4.92819818e-03 -2.02697534e-02 -1.68590859e-01
      1.28725078e-02 2.21454039e-01 5.90946749e-02 1.34017080e-01
      -5.29647656e-02 -1.06913432e-01 -8.20131004e-02 6.18306100e-02
      8.38108733e-02 6.50317818e-02 -6.95640072e-02 -1.26980320e-01
      1.49669781e-01 -1.46092147e-01 4.03541289e-02 1.24930084e-01
      -4.88552265e-03 7.92144891e-03 -1.28486142e-01 -6.80206120e-02
      -1.28200710e-01 1.09704293e-01 -9.36166793e-02 4.72316854e-02
      -8.61501396e-02 7.99130052e-02 -5.67732155e-02 -1.07702523e-01
      -1.49008140e-01 -2.28839517e-02 -1.50209367e-01 -2.89254487e-02
      2.76554581e-02 -1.21187888e-01 -2.15321267e-03</_>
    <_>
      -7.19295681e-01 9.24715847e-02 5.31000018e-01 -8.03796768e-01
      3.39229442e-02 -1.55106306e-01 -2.37422436e-01 1.14335567e-02
      -1.59994110e-01 -5.82580119e-02 -4.99804430e-02 2.02962622e-01
      -4.27360833e-02 -3.20871361e-02 2.73126662e-01 9.68084857e-02
      1.02511598e-02 -8.94641280e-02 -4.05320823e-02 -9.34160575e-02
      2.03232281e-02 7.42427856e-02 -7.89899155e-02 -1.13831749e-02
      6.98529407e-02 -1.15019895e-01 5.70829846e-02 -1.32299185e-01
      1.23043373e-01 -3.92989777e-02 -2.42139548e-02 9.55503657e-02
      4.96863499e-02 3.62835377e-02 -1.90030649e-01 -9.33467001e-02
      9.59489048e-02 -5.17281815e-02 -8.76676366e-02 5.01415096e-02
      -6.54906183e-02 -1.30624967e-02 -1.14063658e-01 1.84152976e-01
      -5.92121035e-02 -8.23376477e-02 -4.87519950e-02 9.90721304e-03
      1.65515989e-01 -1.32191390e-01 4.56776703e-03 -1.99949399e-01
      -7.35633895e-02 -6.72184229e-02 -7.34813362e-02 -1.64019972e-01
      4.58749011e-02 4.01823632e-02 -3.95433269e-02 8.43830779e-02
      5.87288849e-02 -1.60928175e-01 -4.82507609e-03 -3.63718085e-02
      4.14484218e-02 -3.99388708e-02 -4.54101004e-02 -1.00860208e-01
      -6.49721362e-03 -9.42866411e-03 -1.52255446e-01 7.22178444e-02
      -3.87522019e-02 -7.34593645e-02 1.37835786e-01 -4.20063473e-02
      -6.52217641e-02 1.52808120e-02 9.66489986e-02 9.84352827e-03
      -5.94070554e-03 -8.80217105e-02 -1.19190082e-01</_>
    <_>
      -5.44166148e-01 4.02321786e-01 2.34526083e-01 -8.34537685e-01
      -1.87744379e-01 -3.19290191e-01 5.52680949e-03 -1.88702628e-01
      -3.19425464e-01 -2.55089670e-01 2.12150544e-01 1.86256140e-01
      -5.58142178e-02 -2.70178348e-01 8.66366699e-02 2.11573377e-01
      -2.92961329e-01 -1.33375879e-02 5.75581305e-02 5.87364547e-02
      9.60769951e-02 -1.00718867e-02 4.96336259e-02 2.00428918e-01
      4.78599928e-02 -1.03452854e-01 4.82486561e-02 -2.65190993e-02
      -9.93301347e-03 -2.23278049e-02 3.48109752e-02 -5.51388562e-02
      6.54877573e-02 -1.48616834e-02 -2.49986872e-02 1.00062288e-01
      1.15196764e-01 7.32748732e-02 -3.49614441e-01 -2.41773188e-01
      1.73504144e-01 1.10465780e-01 4.92262803e-02 -6.27367198e-03
      1.51334792e-01 -1.02205783e-01 -1.64721832e-01 -1.36924759e-01
      2.18369756e-02 6.19510785e-02 -2.69613594e-01 -4.04729135e-02
      -9.09543782e-02 1.26567464e-02 1.49043456e-01 -6.48867488e-02
      5.20431846e-02 -6.14627302e-02 -2.37017110e-01 -7.66709074e-02
      1.67597726e-01 -8.93415958e-02 -5.89017905e-02 -4.35868315e-02
      1.45431146e-01 -4.51969802e-02 9.80139896e-02 1.42014310e-01
      5.85159995e-02 -4.48897444e-02 7.19839940e-03 1.09069929e-01
      1.23064719e-01 1.22593991e-01 -1.28002450e-01 -1.48079067e-01
      -1.23619959e-01 3.18547711e-02 2.36217529e-01 -8.39566067e-02
      -1.04526661e-01 7.42296502e-02 1.06080189e-01</_>
    <_>
      -6.29227757e-01 3.48017037e-01 5.58050036e-01 -8.61416638e-01
      -2.25195915e-01 -9.28657502e-02 -4.54903319e-02 -1.18817024e-01
      -1.39344066e-01 -2.59529591e-01 1.66485772e-01 9.31417495e-02
      -5.09246662e-02 -3.61428827e-01 3.51901092e-02 7.55121037e-02
      -1.76709741e-01 3.58568653e-02 -1.60079509e-01 5.60157336e-02
      3.33215930e-02 -5.50243519e-02 2.27150787e-02 9.43764150e-02
      3.19697782e-02 1.03405938e-02 8.96581411e-02 5.91291785e-02
      -4.88971546e-02 -3.32036726e-02 -1.57964621e-02 -1.62902787e-01
      5.11358120e-02 4.91829105e-02 2.90690184e-01 1.80153221e-01
      -8.03022012e-02 7.55463392e-02 -2.27774262e-01 2.46852054e-03
      2.37438511e-02 -1.57975908e-02 -4.25447524e-02 -5.06028421e-02
      1.13918953e-01 -4.55719605e-02 4.13018167e-02 -1.27472654e-01
      -1.91291352e-03 -4.30972837e-02 -1.22463934e-01 -1.48587525e-01
      -2.44199589e-01 1.39000297e-01 -5.99848628e-02 -2.49894578e-02
      -8.70425478e-02 1.64328337e-01 -2.06647590e-01 -1.86554939e-02
      6.24998398e-02 8.23542774e-02 4.34106886e-02 -1.29569009e-01
      1.54644862e-01 8.23760182e-02 -1.25869550e-02 3.56936678e-02
      -1.58721820e-01 -1.61967576e-02 2.62020770e-02 1.77711114e-01
      9.61102918e-03 1.04866615e-02 -4.39813361e-02 -6.82729408e-02
      -1.29517198e-01 -6.10121861e-02 1.07112983e-02 -4.34304848e-02
      -1.16468675e-01 1.40250906e-01 1.41481549e-01</_>
    <_>
      -5.06031871e-01 -3.24260741e-02 9.13134038e-01 -8.50581884e-01
      -1.46295354e-01 -1.81640938e-01 -1.17518697e-02 -4.64549027e-02
      -1.28413320e-01 -1.78280890e-01 -1.95268579e-02 9.03601721e-02
      2.09748950e-02 -1.60778165e-01 8.52968618e-02 2.06215546e-01
      1.38198525e-01 -1.49478257e-01 -9.38885361e-02 9.03090164e-02
      -1.05160043e-01 1.02697760e-01 -5.09273484e-02 -2.78159641e-02
      5.66007458e-02 5.84740983e-03 1.94197431e-01 -6.07021786e-02
      -1.17814757e-01 -7.84212723e-02 8.66604447e-02 -1.19561851e-01
      1.07840702e-01 -4.27592583e-02 -4.30061109e-02 4.85244207e-02
      3.68130207e-02 1.74911395e-01 -1.55231114e-02 -1.52012259e-01
      -6.29123077e-02 -1.71550766e-01 5.86464554e-02 -5.22879958e-02
      1.20277651e-01 2.07588319e-02 9.17236507e-02 4.80883643e-02
      2.29473840e-02 -8.10252652e-02 -1.66085437e-01 -4.67787422e-02
      -1.17694981e-01 -1.55624539e-01 7.45713850e-03 6.99060187e-02
      1.04879607e-02 -1.09092906e-01 -8.88714269e-02 1.94352061e-01
      -1.95471272e-02 -1.73264593e-02 -4.60592955e-02 5.37672862e-02
      -4.28048372e-02 -1.34155139e-01 1.30521599e-03 6.42105490e-02
      6.67552417e-03 -5.84637420e-03 -6.81925118e-02 1.23565391e-01
      7.33138099e-02 -1.50868483e-02 -2.14932300e-02 1.86441671e-02
      9.77197066e-02 1.40204400e-01 -1.11876883e-01 -1.55935585e-01
      -9.76788849e-02 -1.21042028e-03 3.35633988e-03</_>
    <_>
      -4.09264416e-01 5.98236881e-02 8.50869834e-01 -7.49364674e-01
      -1.46284610e-01 -1.87213570e-01 -9.91896912e-02 1.38711566e-02
      -1.03143945e-01 -2.34094337e-01 -5.14970981e-02 -7.22966716e-02
      -3.91187184e-02 -9.64327622e-03 -1.92686226e-02 1.65840223e-01
      1.55231640e-01 -6.50887117e-02 -9.45748165e-02 6.55987039e-02
      6.39855415e-02 1.67934150e-02 -1.43996745e-01 -1.93831652e-01
      -7.68338591e-02 -1.81109175e-01 1.78835377e-01 5.74069098e-02
      -8.03158879e-02 -1.05660617e-01 -2.43867766e-02 4.14075740e-02
      2.43933201e-02 2.00769410e-01 6.27732128e-02 -3.56683172e-02
      1.15260007e-02 -5.02079055e-02 -2.61056493e-03 3.06755342e-02
      -3.13349605e-01 -1.64431125e-01 6.64780289e-02 8.26229081e-02
      9.86293852e-02 1.52774706e-01 1.04081884e-01 1.16083913e-01
      1.76576063e-01 -2.23036364e-01 -7.05168396e-02 4.84589068e-03
      1.61200631e-02 -9.72576588e-02 8.49383399e-02 -7.18677491e-02
      7.35099316e-02 -1.18074700e-01 6.48582801e-02 8.44069943e-02
      -2.26494353e-02 -3.01988074e-03 -1.46993220e-01 -7.42224008e-02
      4.00658622e-02 -2.19945475e-01 -1.23349972e-01 -5.74824912e-03
      1.45776480e-01 3.68075185e-02 -6.56920075e-02 -3.26239206e-02
      -6.97958320e-02 -1.23617254e-01 5.12892604e-02 -8.13693479e-02
      4.58702967e-02 -2.76484005e-02 -8.75126719e-02 -2.80925632e-03
      -6.83656111e-02 -9.01320055e-02 -2.27071978e-02</_>
    <_>
      -4.78683531e-01 1.09629095e-01 8.98764849e-01 -9.24347162e-01
      -1.28754854e-01 -1.82079569e-01 2.04461627e-02 -1.03515297e-01
      -2.30665386e-01 -1.80562645e-01 -9.09766331e-02 2.24140778e-01
      2.38409080e-03 -2.69174427e-01 9.01651531e-02 1.19234949e-01
      4.63482961e-02 -6.86867833e-02 -2.20912829e-01 1.04601379e-03
      8.31744373e-02 -3.62073593e-02 -1.53837368e-01 -2.15514168e-01
      1.57016963e-01 8.78958330e-02 3.44577432e-02 -4.95970286e-02
      -6.62189350e-02 8.78378153e-02 -1.63710460e-01 -1.97563812e-01
      -1.11431211e-01 5.86875565e-02 1.50045566e-02 -1.44639984e-02
      -8.95914063e-02 -1.49593323e-01 -3.60854678e-02 -1.43698394e-01
      -1.10035732e-01 -4.28400524e-02 1.00460187e-01 -1.19544737e-01
      6.51024655e-03 3.35765369e-02 -8.87049735e-02 -1.54705614e-01
      1.64719149e-02 -9.27101076e-02 -8.82967860e-02 -1.70896024e-01
      3.84386443e-02 4.88139279e-02 2.53369808e-01 -6.72786832e-02
      1.03638835e-01 6.09463751e-02 -8.67445692e-02 -5.12573048e-02
      1.73505485e-01 1.22230060e-01 4.30440828e-02 -2.31881551e-02
      1.23859480e-01 -1.90067545e-01 -2.12672308e-01 7.88976029e-02
      3.64425108e-02 -1.40604135e-02 9.83982980e-02 3.82120721e-02
      -7.19072744e-02 3.40436250e-02 -4.57079820e-02 7.76903564e-03
      -6.90796599e-02 -8.34096223e-02 1.14015229e-01 -1.07181348e-01
      1.51217401e-01 2.00073048e-02 1.63208634e-01</_>
    <_>
      -7.35334814e-01 4.55547959e-01 4.23651993e-01 -7.39371479e-01
      -1.73836991e-01 -2.80997247e-01 -2.81034619e-01 -1.04539283e-01
      -3.30196679e-01 -8.42990205e-02 2.43987933e-01 2.23548502e-01
      -9.07352641e-02 -1.52785480e-01 2.57798314e-01 1.32634565e-02
      -8.87868032e-02 4.30472903e-02 5.42307682e-02 -1.10810464e-02
      3.02304290e-02 -3.63655016e-02 1.78392693e-01 1.15872130e-01
      -6.48892447e-02 -1.36124358e-01 -3.50489607e-03 -8.31379145e-02
      2.47848958e-01 -5.70575558e-02 2.74432581e-02 -3.75317177e-03
      2.42112845e-01 1.02000758e-02 1.51751921e-01 -4.03363071e-02
      1.73296869e-01 4.62507084e-02 -8.28760117e-02 1.85084753e-02
      4.73009087e-02 8.97029862e-02 -7.90240616e-02 4.06909510e-02
      4.46461216e-02 -3.06394190e-01 -2.56382134e-02 1.35915071e-01
      -9.14461315e-02 -9.01753549e-03 -2.12526228e-02 2.46398151e-03
      2.53233649e-02 2.24343185e-05 2.38103326e-02 -1.91300386e-03
      1.23857252e-01 -5.74861243e-02 5.44923283e-02 -1.39928786e-02
      -4.37870016e-03 -1.17298104e-01 -1.12391129e-01 -3.05794515e-02
      -7.53367022e-02 2.34475508e-02 1.09805785e-01 8.56261402e-02
      8.38146508e-02 4.29258682e-02 -4.86547425e-02 9.81053784e-02
      6.19174577e-02 2.90330909e-02 4.49128775e-03 -4.17067930e-02
      -5.83077595e-02 -9.95407477e-02 -3.62455472e-02 1.53856397e-01
      1.33896424e-02 7.93805197e-02 1.04737423e-01</_>
    <_>
      -5.84982216e-01 3.84934068e-01 7.03251600e-01 -7.62540817e-01
      -2.35533223e-01 -3.96010667e-01 3.13288122e-02 -1.85652614e-01
      -3.08989346e-01 -1.11218907e-01 5.41691631e-02 2.01354638e-01
      8.46336484e-02 -3.97403628e-01 9.53142643e-02 1.68002576e-01
      2.20336206e-02 7.05251023e-02 9.15273651e-02 -3.89988162e-02
      1.54061034e-01 4.89823408e-02 -3.40267792e-02 1.89568967e-01
      1.30804509e-01 1.45625055e-01 -1.23032004e-01 -6.26196191e-02
      2.60046065e-01 -3.48051451e-02 1.34067964e-02 -5.58140203e-02
      2.34376445e-01 -1.54186994e-01 1.26099527e-01 2.91922331e-01
      5.79605363e-02 1.97228007e-02 2.53074709e-02 -1.45030692e-01
      -8.31120908e-02 -5.64858355e-02 -3.12288627e-02 -2.39018928e-02
      7.11419061e-02 -1.26432981e-02 -2.04490405e-02 -6.23100698e-02
      -1.03691243e-01 -4.63467911e-02 1.07441142e-01 -1.74500823e-01
      5.65466359e-02 1.62496239e-01 5.34833316e-03 -4.58939523e-02
      8.48731678e-03 1.97026953e-01 3.50792333e-02 2.25829333e-01
      1.97827458e-01 -1.69261172e-01 -7.85830840e-02 9.67261344e-02
      2.00812612e-02 1.06842868e-01 -9.51090604e-02 -1.25327066e-01
      -6.32751212e-02 2.11817268e-02 -5.54283299e-02 -1.33012697e-01
      -1.03932291e-01 -2.43126247e-02 -1.07349083e-02 -1.26434281e-01
      -1.28027976e-01 -8.12173560e-02 -1.81713149e-01 -7.78865293e-02
      -2.82905642e-02 -1.07888475e-01 -1.19308315e-01</_>
    <_>
      -6.53239965e-01 4.08359706e-01 5.70044637e-01 -6.33840919e-01
      -2.48754427e-01 -2.75566697e-01 2.91007068e-02 -2.23954305e-01
      -1.76496953e-01 -1.83630407e-01 -4.05272320e-02 1.11341238e-01
      -1.24562249e-01 -2.51162976e-01 1.09053478e-01 1.32865816e-01
      2.84989446e-01 -1.37101889e-01 2.84929108e-02 -1.66307971e-01
      -1.78543791e-01 -8.44739377e-02 -4.46777372e-03 -2.43698657e-02
      -2.22081617e-02 -4.08387072e-02 5.66668473e-02 -1.04465261e-01
      9.48170051e-02 -1.11053269e-02 3.84677462e-02 -1.48169696e-01
      -1.27586156e-01 8.74540731e-02 -8.38025734e-02 1.27045006e-01
      6.87793866e-02 1.93541925e-02 -1.02695227e-01 7.69994333e-02
      -2.19536141e-01 -2.88520932e-01 -1.90947205e-01 1.30711466e-01
      -2.53518298e-02 1.05969079e-01 1.05108812e-01 1.68221563e-01
      -1.91100910e-01 -3.44720446e-02 -5.30058555e-02 -2.57907920e-02
      9.27524045e-02 1.59594752e-02 3.91555801e-02 -5.72472103e-02
      1.77872717e-01 1.17452221e-03 -1.55804470e-01 1.36423439e-01
      -1.91321550e-03 -1.81169003e-01 -1.08865947e-01 7.05081001e-02
      -8.35480243e-02 -4.68368493e-02 4.96811531e-02 1.76706212e-03
      1.31800979e-01 -2.58825216e-02 -6.17685262e-04 1.15613021e-01
      -6.47898316e-02 1.85419098e-01 1.25337124e-01 4.04182039e-02
      -7.62547227e-03 -3.69803570e-02 6.41953200e-02 -6.06836565e-02
      -3.00117233e-03 5.16277784e-03 6.11025654e-03</_>
    <_>
      -7.11096227e-01 2.21710026e-01 5.74270964e-01 -6.92930460e-01
      -7.04900399e-02 2.08541244e-01 -1.69421017e-01 -1.48635849e-01
      -2.14228183e-01 -2.67814338e-01 -6.38756379e-02 2.10364938e-01
      8.70115384e-02 -2.83443213e-01 2.77472772e-02 -3.06686126e-02
      1.91334233e-01 -4.60047238e-02 -1.19035356e-02 -1.24311028e-02
      2.04081973e-03 -1.03269368e-01 -5.97762577e-02 -4.96101789e-02
      -7.78611228e-02 -1.52865648e-01 1.25656337e-01 -2.42791437e-02
      -3.13679501e-02 1.10931629e-02 -5.81943654e-02 5.46071772e-03
      1.05733521e-01 1.81822618e-03 -1.78294167e-01 -3.21837962e-02
      -1.61120489e-01 9.03801396e-02 -6.92433268e-02 -6.05291463e-02
      -1.42381892e-01 -1.02122054e-01 -2.28495523e-01 1.44321108e-02
      -1.70640707e-01 1.33846477e-01 8.11532214e-02 -5.88455843e-03
      1.00041656e-02 3.50089148e-02 -6.61470667e-02 3.05962358e-02
      -1.34780765e-01 -1.08651698e-01 7.72757456e-02 8.00374672e-02
      1.32670328e-01 -4.80521806e-02 8.27913582e-02 9.79329795e-02
      -2.35905558e-01 1.27099872e-01 -3.35079357e-02 1.32808194e-01
      -7.86326826e-02 -8.44353214e-02 -1.24834374e-01 2.01120287e-01
      1.44713223e-01 6.75816759e-02 1.08089127e-01 1.28616393e-01
      -4.76349182e-02 4.27812040e-02 -2.08190437e-02 -1.22657046e-01
      -6.83315694e-02 8.88488740e-02 2.05087326e-02 -3.99945155e-02
      -2.81733181e-02 5.07955700e-02 -1.08477294e-01</_>
    <_>
      -6.18988037e-01 2.92027384e-01 5.48038363e-01 -8.80595863e-01
      -6.84701055e-02 -1.48478478e-01 7.20559135e-02 -1.48243859e-01
      -2.98533499e-01 -3.36091548e-01 -1.20842546e-01 1.94482177e-01
      -1.16069533e-01 1.83054313e-01 6.34247810e-02 3.71546075e-02
      1.85041845e-01 -6.07917085e-02 -1.39266208e-01 2.49514394e-02
      3.34097631e-02 -3.94600071e-02 -4.97453287e-03 8.04316252e-02
      -8.47648308e-02 -1.07181445e-01 4.73717898e-02 3.69371250e-02
      2.87219007e-02 3.55127268e-02 -1.37359738e-01 -6.71790540e-02
      -1.14334576e-01 7.55598545e-02 -1.73579499e-01 -3.07224356e-02
      5.23393825e-02 -3.18180993e-02 -8.12908728e-03 -3.74626704e-02
      -6.65458618e-03 -1.92285880e-01 -1.69112250e-01 1.29116014e-01
      -2.05562022e-02 1.23311384e-02 1.60886720e-02 5.60673364e-02
      3.98135595e-02 7.14479992e-03 1.11973360e-02 -1.28261358e-01
      1.09300025e-01 6.65126815e-02 1.29425153e-01 4.25991379e-02
      4.60896865e-02 -3.16379406e-02 -4.78290133e-02 8.37874487e-02
      1.58818901e-01 4.01137844e-02 -1.66683152e-01 -6.87670186e-02
      -2.98255552e-02 -2.14734212e-01 1.61642194e-01 5.23221046e-02
      -3.60640287e-02 6.29230514e-02 3.47466953e-02 1.88204169e-01
      -6.35749996e-02 -4.11071852e-02 2.59241492e-01 7.62234330e-02
      -5.45884185e-02 -7.97008425e-02 -3.92289050e-02 -7.51250684e-02
      -5.84127568e-02 -1.78293735e-01 4.38536964e-02</_>
    <_>
      -7.53426492e-01 3.97617847e-01 4.98999536e-01 -7.00813353e-01
      2.60252506e-02 -2.25212261e-01 -3.55454415e-01 -2.88366918e-02
      -1.41581327e-01 -2.02961743e-01 -1.35273248e-01 1.04149161e-02
      6.49520010e-03 -5.30242063e-02 9.83936191e-02 -2.67891306e-02
      4.04447392e-02 -1.81757495e-01 -1.60207361e-01 1.34021575e-02
      -4.16398607e-02 -1.43515676e-01 5.34302890e-02 7.15885386e-02
      -2.25264087e-01 2.12998576e-02 -6.20321855e-02 -3.48034054e-02
      -1.58727288e-01 -1.47403209e-02 1.97755825e-02 1.14947669e-02
      -1.41987249e-01 8.02489966e-02 -7.58772865e-02 2.07147077e-02
      1.65595561e-02 -1.11064296e-02 7.36489668e-02 -7.83343508e-04
      7.24510401e-02 -2.12435335e-01 -3.24826390e-02 -8.22200552e-02
      -1.13425002e-01 7.84953125e-03 1.19394861e-01 -1.14246301e-01
      3.16662118e-02 4.66433428e-02 -4.35995543e-03 -4.67606336e-02
      -7.11768270e-02 -6.31615222e-02 1.36882989e-02 -1.26074374e-01
      2.04523295e-01 7.46780038e-02 4.14022207e-02 -2.45596636e-02
      -6.53845146e-02 -1.03509530e-01 3.74447517e-02 9.15408731e-02
      2.91707497e-02 -8.24502259e-02 4.21425737e-02 1.00608505e-02
      -4.64579947e-02 -1.55693516e-01 -3.42830792e-02 -1.01841182e-01
      -1.76044852e-01 5.07399179e-02 1.10870846e-01 6.73870817e-02
      -1.57943413e-01 -2.53795180e-03 -1.39666319e-01 -1.08606545e-02
      -4.35186513e-02 1.86801013e-02 1.24909215e-01</_>
    <_>
      -5.29074311e-01 2.19824687e-01 5.74281335e-01 -8.08545232e-01
      -1.76779151e-01 -1.14825018e-01 -1.67102024e-01 8.57489184e-02
      -1.20671131e-01 -2.28238344e-01 -7.56355673e-02 1.18908718e-01
      -1.79481111e-03 -9.40531045e-02 1.32373348e-01 1.65504083e-01
      6.71763197e-02 -1.07894525e-01 -2.99997944e-02 4.28874530e-02
      6.85051158e-02 -6.61267666e-03 1.83258206e-02 1.49812095e-03
      3.56315151e-02 -9.79378298e-02 9.49725062e-02 -4.39740941e-02
      -9.58302766e-02 -8.06998834e-02 -3.39318416e-03 7.63166696e-02
      1.62319392e-01 1.90211702e-02 -1.01562299e-01 -1.67412803e-01
      -5.33896200e-02 -1.53606445e-01 4.16924059e-02 -1.17844911e-02
      -1.36605844e-01 1.21139940e-02 -9.47543532e-02 5.01177311e-02
      1.71904892e-01 -3.46756242e-02 -2.16062710e-01 -1.93344831e-01
      8.71275887e-02 4.35282402e-02 -3.92997861e-02 5.65508604e-02
      -1.91684365e-01 -2.12320626e-01 -7.92484879e-02 1.88939050e-02
      -1.37035862e-01 1.34193480e-01 2.07835987e-01 3.45540345e-02
      -8.22068751e-02 5.16735613e-02 -2.38223914e-02 -5.63377403e-02
      6.78369924e-02 8.92182365e-02 2.94101960e-03 1.65206164e-01
      -6.06647618e-02 -1.36971444e-01 -8.11830312e-02 1.36815347e-02
      -9.94780567e-03 -1.02224559e-01 -5.32256532e-03 1.31705567e-01
      9.71963406e-02 1.64585546e-01 1.03109822e-01 4.65578884e-02
      1.71852231e-01 -5.13565391e-02 5.23028225e-02</_>
    <_>
      -6.80070281e-01 2.37996086e-01 7.23819852e-01 -6.46344244e-01
      -5.33271879e-02 -1.77878827e-01 -8.69394690e-02 -3.20925713e-02
      -8.27980135e-03 -2.08433196e-01 -2.80779123e-01 -4.09314744e-02
      9.85137299e-02 -2.23788559e-01 4.22404632e-02 6.88249916e-02
      -1.43387452e-01 -4.79162857e-02 -9.78213921e-02 1.81075022e-01
      -1.26097426e-01 -3.89097780e-02 -2.29213640e-01 -5.17597347e-02
      5.88443354e-02 -4.32695597e-02 4.03334424e-02 -9.49331298e-02
      -1.28603294e-01 -1.54540867e-01 -4.37711030e-02 9.43989551e-04
      -2.93137319e-03 1.80534735e-01 1.81280561e-02 -1.44135114e-02
      -1.65897995e-01 -2.37009232e-03 -3.45014669e-02 4.46668826e-02
      5.81091791e-02 -6.16858341e-02 1.41063511e-01 2.33584363e-02
      1.42277479e-01 -6.95941150e-02 1.03972971e-01 -1.23465493e-01
      1.05171248e-01 -6.53163856e-03 -1.34995103e-01 1.39708430e-01
      -2.12345868e-01 -7.86412731e-02 -9.81164537e-03 1.26488674e-02
      1.37035996e-01 -3.90482582e-02 -1.84186369e-01 -1.03758574e-01
      -4.15484495e-02 -8.08320660e-03 5.47870956e-02 1.48586333e-01
      -1.76542513e-02 -9.62222517e-02 -8.26706588e-02 -8.58197827e-03
      6.49666861e-02 -3.89998010e-03 -5.19525893e-02 1.74852982e-01
      -1.46827042e-01 9.05396417e-03 -1.62688449e-01 -1.16611175e-01
      7.09647536e-02 1.08663701e-01 2.38054052e-01 -1.36361524e-01
      -1.02904513e-01 1.21279126e-02 1.90548729e-02</_>
    <_>
      -5.14546871e-01 2.41947114e-01 6.83375418e-01 -6.04734421e-01
      -8.21221992e-02 -2.31064528e-01 -1.22710183e-01 -2.12972537e-02
      -1.31063551e-01 -3.01737607e-01 -1.65501624e-01 -1.17331065e-01
      -2.14274097e-02 -1.28743768e-01 1.40491068e-01 2.14108959e-01
      1.15663745e-01 8.51477217e-03 -1.24621466e-01 5.70762977e-02
      -1.93316236e-01 -1.08500704e-01 -1.77653711e-02 -5.18249013e-02
      -6.02015108e-03 1.20580439e-02 2.19788793e-02 1.08297840e-01
      -4.18674797e-02 -5.81969097e-02 -1.06412478e-01 8.37304294e-02
      -5.10433242e-02 1.89887598e-01 1.01980038e-01 -5.75657450e-02
      7.08087534e-02 -5.37532978e-02 -1.78611383e-01 1.85650438e-01
      7.81248435e-02 -3.03467140e-02 6.57391995e-02 1.08025402e-01
      1.08242042e-01 -6.30866960e-02 6.47803470e-02 1.53777627e-02
      -2.33292468e-02 3.10413033e-01 -4.30008434e-02 1.72125816e-01
      2.05638614e-02 2.64277160e-02 -6.67112693e-02 4.02386822e-02
      2.99884558e-01 -7.00418232e-03 -9.61571708e-02 -1.01114027e-01
      -1.05075531e-01 -6.15940578e-02 1.31623119e-01 2.33589057e-02
      1.23367645e-02 -2.10373253e-01 -2.84405164e-02 6.20107837e-02
      5.84828071e-02 6.66996390e-02 1.05878741e-01 4.93049473e-02
      1.22949027e-01 3.19307074e-02 -8.50748196e-02 -5.48531488e-02
      3.51059362e-02 8.57391395e-03 2.32255422e-02 -1.23584438e-02
      -1.33867607e-01 -1.29714340e-01 -9.80945304e-02</_>
    <_>
      -6.44820690e-01 -1.48165831e-02 9.14176822e-01 -8.44858825e-01
      -1.10209383e-01 -1.79246977e-01 -1.05640672e-01 -8.83274246e-03
      -6.74223453e-02 -2.75290877e-01 -2.26424456e-01 1.01268277e-01
      1.49914650e-02 -1.45173952e-01 7.70968720e-02 1.79542080e-02
      5.63964434e-02 -1.12890452e-01 -1.64663494e-01 1.31449878e-01
      -7.66026452e-02 -1.95059162e-02 -1.43170729e-01 -6.89204112e-02
      -1.04078390e-01 -9.92852077e-02 1.41197160e-01 -4.11978252e-02
      2.45647877e-03 4.35884781e-02 -3.28025743e-02 -5.89053473e-03
      6.29775971e-02 -4.16241735e-02 -1.26923602e-02 -1.43237233e-01
      -1.28738523e-01 6.20038435e-02 1.54984847e-01 5.63424826e-02
      6.99161962e-02 -1.43758133e-01 9.38733760e-03 2.59204414e-02
      1.30392045e-01 -4.27506231e-02 -1.15823068e-01 2.52700858e-02
      1.74423903e-01 4.26970273e-02 -2.47523095e-02 -2.07341447e-01
      -8.90627056e-02 -5.23604341e-02 -9.81714129e-02 1.10938981e-01
      5.21872826e-02 6.88584000e-02 -1.12572886e-01 -4.67584990e-02
      -6.61475807e-02 1.50628150e-01 -1.42432868e-01 -3.12714139e-03
      3.34076886e-03 -4.39108200e-02 -1.56057803e-02 1.67497471e-01
      7.53806457e-02 -8.92013162e-02 9.03083757e-02 7.42343813e-02
      5.27571961e-02 8.23968425e-02 -6.86986651e-03 -2.53638048e-02
      4.68321666e-02 -1.72276944e-02 -1.26680598e-01 -1.29512265e-01
      4.94276546e-02 -5.27494214e-02 1.56137478e-02</_>
    <_>
      -5.46463668e-01 7.47984573e-02 8.85983169e-01 -8.70063186e-01
      -7.21067563e-02 -1.67458192e-01 -1.42750680e-01 1.37698613e-02
      4.01714407e-02 -1.87736765e-01 -5.48453964e-02 4.42165695e-02
      1.35420576e-01 -1.79793626e-01 1.48828879e-01 -2.07738727e-02
      -3.20107453e-02 -1.94986165e-01 -1.37657940e-01 2.71094982e-02
      -1.22336067e-01 -9.24400240e-03 1.30562469e-01 -4.93230857e-02
      -3.47916856e-02 -1.85456008e-01 -4.02925303e-03 -1.22786693e-01
      -2.64497008e-02 -1.93881197e-03 -7.22479597e-02 -3.26562971e-02
      -9.87105891e-02 6.74869195e-02 -4.53794487e-02 4.14282978e-02
      -1.66515335e-01 1.72490492e-01 -5.28999120e-02 9.67327207e-02
      6.51026443e-02 -1.71001092e-01 1.09554939e-02 7.89364427e-02
      8.21205527e-02 5.33249602e-02 1.69630125e-02 7.66485855e-02
      6.01491854e-02 -9.62120295e-03 8.23295936e-02 -1.31358638e-01
      -8.94851834e-02 -1.73854217e-01 -1.32218570e-01 -6.94034528e-03
      -2.59777214e-02 -4.33556400e-02 -1.07730534e-02 1.72905833e-01
      2.10015830e-02 8.64242390e-02 -1.07145838e-01 1.57501325e-01
      -2.17014793e-02 -9.87877920e-02 8.95857587e-02 1.47706317e-02
      3.80199179e-02 1.14882112e-01 1.42681792e-01 -3.95737253e-02
      9.17517319e-02 -5.82033806e-02 -6.64829463e-02 3.76854539e-02
      -2.63964124e-02 7.85578340e-02 -2.76203230e-02 -1.33163482e-01
      -1.66160479e-01 -6.41222596e-02 3.72190902e-04</_>
    <_>
      -5.79343438e-01 2.45995730e-01 7.68552661e-01 -9.16364133e-01
      -6.30944073e-02 -1.18223481e-01 -1.82081476e-01 -1.88669339e-02
      -1.42117128e-01 -4.28866953e-01 -2.15121731e-01 -7.65205696e-02
      9.39784646e-02 -2.81871527e-01 1.93490013e-01 2.10983768e-01
      1.50402188e-01 -1.20829202e-01 -1.35978296e-01 1.05011195e-01
      -7.67724006e-04 -8.72528329e-02 2.68281661e-02 -1.30235264e-02
      7.67346378e-03 -5.99047057e-02 2.22885862e-01 -9.90492105e-03
      1.65599119e-02 -4.76420653e-04 1.91815436e-01 1.36145249e-01
      1.51242599e-01 2.49079731e-03 -1.23681523e-01 -3.61576937e-02
      -2.43091151e-01 -5.61012216e-02 4.40535136e-02 4.11921665e-02
      -5.90372309e-02 -1.28666729e-01 9.58691612e-02 4.99866344e-02
      2.63911821e-02 7.84759503e-03 -1.63342565e-01 -8.79750773e-02
      2.15464067e-02 -3.10282446e-02 1.33324072e-01 -6.24438412e-02
      -1.54910728e-01 -5.25326096e-02 3.08349375e-02 4.91736047e-02
      6.19284399e-02 -1.44657530e-02 -7.66325817e-02 2.16734912e-02
      -6.84268177e-02 1.89311162e-01 1.98298737e-01 1.03429377e-01
      4.08777315e-03 9.50953662e-02 -1.22485258e-01 1.33203855e-02
      -1.53368235e-01 -6.89636469e-02 -1.48460902e-02 6.04905784e-02
      3.43605354e-02 1.25345111e-01 -7.07601607e-02 -5.53334057e-02
      3.00012659e-02 1.38745531e-01 -3.86578888e-02 -9.40300822e-02
      9.53590423e-02 4.31251377e-02 -2.89151706e-02</_>
    <_>
      -6.98580325e-01 2.56620020e-01 6.77495778e-01 -7.64331222e-01
      -1.39749721e-01 -1.56012833e-01 -1.87546149e-01 3.61033194e-02
      -2.36398488e-01 -1.96764171e-01 5.28984107e-02 1.45717561e-01
      -2.03782413e-02 -1.65022314e-01 1.96289137e-01 -3.62446345e-02
      7.85944536e-02 -1.59209922e-01 -2.03417748e-01 -1.30109653e-01
      2.15908457e-02 -7.83625916e-02 2.49718335e-02 7.01234723e-03
      1.48341805e-01 -1.02004096e-01 1.37709692e-01 1.91623643e-01
      1.32832944e-01 -3.43416855e-02 1.21798441e-01 2.69887261e-02
      1.81676432e-01 -7.98704103e-02 4.11037169e-02 1.43921673e-02
      2.07200378e-01 -2.60630883e-02 -1.11456169e-02 1.80386141e-01
      -3.27854641e-02 2.06444055e-01 -1.17464766e-01 9.64440778e-02
      1.92861147e-02 -7.79879838e-02 -1.27490506e-01 -9.48008988e-03
      -6.79029226e-02 -1.68286532e-01 1.26976520e-03 -2.45126918e-01
      -4.58933003e-02 -2.67059803e-02 2.55359486e-02 -6.03372678e-02
      1.05773792e-01 -2.09229868e-02 -2.21844427e-02 5.75829707e-02
      -1.93793252e-01 1.62908480e-01 -2.27259472e-02 1.15385570e-01
      -1.46638066e-01 -5.73466010e-02 5.52805476e-02 -1.06908619e-01
      1.00582190e-01 2.95698792e-02 -1.66472048e-02 1.51599616e-01
      1.06976889e-01 2.01858878e-01 -1.50364367e-02 1.62882134e-02
      -6.38751090e-02 7.37593174e-02 6.50356784e-02 -2.25425139e-02
      -1.38131812e-01 -7.03891739e-02 -1.77417964e-01</_>
    <_>
      -6.48612916e-01 2.08427191e-01 4.89671439e-01 -1.04410243e+00
      -1.63027659e-01 3.49596441e-02 -8.96047875e-02 -1.94057599e-01
      -2.75699466e-01 3.43806557e-02 1.49255842e-01 2.31862798e-01
      -1.23724200e-01 -1.55369580e-01 -7.33292988e-03 1.95214674e-02
      -1.52419344e-01 1.34270132e-01 -3.66962608e-03 1.95773035e-01
      2.38314122e-01 2.60703832e-01 -5.43996925e-03 -4.52965312e-03
      5.76428026e-02 1.43613398e-01 -3.29248682e-02 -5.20679280e-02
      2.06585154e-02 6.63156956e-02 -8.84581506e-02 -2.28877008e-01
      1.50856853e-01 -1.56407893e-01 8.31282735e-02 1.24276251e-01
      -2.26406045e-02 2.74904836e-02 -1.22982189e-01 -6.47253841e-02
      -7.88581073e-02 2.64173687e-01 3.98775823e-02 -1.28395215e-01
      1.94199100e-01 2.07574338e-01 2.29398385e-02 -3.12477332e-02
      -2.32759863e-03 3.13914125e-03 -1.31237313e-01 -1.93972826e-01
      -3.48867700e-02 -5.67838289e-02 8.37659687e-02 7.36532221e-03
      -2.38656789e-01 -2.36617818e-01 -2.26954594e-01 4.89979014e-02
      1.23638004e-01 1.11604504e-01 -7.18940124e-02 -1.40140310e-01
      -1.17394008e-01 1.21576302e-01 -9.59202368e-03 -8.42497274e-02
      1.72667429e-02 -1.47825023e-02 7.62410788e-03 -1.69622004e-01
      1.58312336e-01 -2.21590966e-01 -6.81868196e-03 -8.73026922e-02
      -6.40861988e-02 8.32072273e-02 9.42727178e-03 -2.36717593e-02
      6.71215206e-02 -7.73654506e-02 -6.95314556e-02</_>
    <_>
      -6.59799039e-01 3.51937830e-01 3.79675329e-01 -9.34354305e-01
      -2.52496377e-02 -1.01335987e-01 -2.80549794e-01 -1.30368322e-01
      -3.55566889e-01 -1.28981814e-01 -4.48915660e-01 1.52646303e-01
      -1.64133295e-01 1.28793225e-01 1.91247482e-02 2.46911161e-02
      1.28601998e-01 1.98658139e-01 -3.16929556e-02 7.02725127e-02
      7.90006444e-02 1.05403163e-01 4.54209261e-02 4.63112071e-03
      -3.13981473e-01 -3.42405215e-02 -2.76652873e-02 3.05893868e-02
      2.95249522e-02 -1.05145446e-03 -1.22533545e-01 -6.04586974e-02
      1.10203780e-01 -5.72285391e-02 -2.75470495e-01 -1.28732786e-01
      -4.45917286e-02 6.70041069e-02 -3.44332270e-02 1.09573096e-01
      -7.83872306e-02 -4.23840806e-02 8.50149468e-02 -6.13460168e-02
      -2.22371280e-01 1.36822956e-02 -1.40928458e-02 -1.60244778e-01
      2.27272883e-01 6.69387868e-03 1.60415426e-01 -1.45897001e-01
      1.19924419e-01 5.27465865e-02 -1.38402367e-02 -1.89263701e-01
      -9.37716365e-02 1.33599900e-02 -5.45298420e-02 -1.42856594e-02
      4.88679372e-02 4.18041274e-02 -1.17302649e-01 -1.06905438e-01
      -1.13028660e-01 2.02790394e-01 -4.41372730e-02 -1.14366338e-01
      9.67568234e-02 9.43670273e-02 -1.52447253e-01 1.88772287e-02
      -1.00743674e-01 9.18589532e-03 4.60863933e-02 4.75356765e-02
      -5.13778366e-02 6.46392722e-03 -1.77705754e-02 8.46125707e-02
      3.48691568e-02 9.37605128e-02 1.44061726e-02</_>
    <_>
      -8.94322693e-01 9.01977777e-01 -3.20213318e-01 -6.70736253e-01
      -1.05935693e-01 -3.65520090e-01 -4.31981623e-01 -2.22768307e-01
      -3.98009330e-01 -3.26170325e-01 1.80816144e-01 2.37233952e-01
      3.13297473e-02 1.67272706e-02 4.74282354e-02 -2.04424009e-01
      -2.34969005e-01 2.30459824e-01 -2.26190430e-03 -7.60495141e-02
      2.90765494e-01 4.51395586e-02 2.15611920e-01 1.67488188e-01
      -3.01118456e-02 -2.69751489e-01 -1.25088776e-02 -1.52222328e-02
      9.27046165e-02 -2.09316202e-02 2.29625046e-01 -5.76393567e-02
      1.38532519e-01 -1.01298943e-01 1.16763376e-01 -3.81048620e-02
      9.77402404e-02 -2.27294285e-02 8.26755259e-03 -1.33322254e-01
      2.31487200e-01 2.21210197e-01 -1.83696821e-01 1.16728045e-01
      9.78556126e-02 -3.04943062e-02 -2.06792623e-01 7.47207925e-02
      6.10129312e-02 -2.15913519e-01 9.02716722e-03 -1.71742216e-01
      -1.72959380e-02 9.76641178e-02 5.22437580e-02 1.25721008e-01
      -1.90020189e-01 -1.74290687e-01 -2.08272450e-02 -2.01959386e-02
      -3.67615931e-02 6.64734468e-02 -1.20976791e-01 -2.11030036e-01
      -5.48143648e-02 -8.50197226e-02 4.26487654e-01 1.45970255e-01
      1.21101841e-01 -3.35542560e-02 -9.55507681e-02 9.33267234e-04
      -1.13915475e-02 1.25986442e-01 -6.99520204e-03 -1.46690886e-02
      1.96353756e-02 2.62325834e-02 2.22645015e-01 6.93298206e-02
      -3.24703865e-02 9.34774727e-02 -5.40281162e-02</_>
    <_>
      -6.36167943e-01 7.44002998e-01 1.22498311e-01 -7.78569758e-01
      1.95562188e-02 -1.11794867e-01 -2.22105473e-01 -8.99177492e-02
      -3.66890818e-01 -1.30871728e-01 -3.76709640e-01 4.45409752e-02
      -1.66395813e-01 1.56573012e-01 3.93334180e-02 1.36662856e-01
      2.41320223e-01 7.02095479e-02 1.26532570e-01 3.31290476e-02
      -2.28413884e-02 -8.75337981e-03 7.12280422e-02 -5.81764467e-02
      -6.70574829e-02 -4.59046438e-02 -8.65559280e-02 -8.30393881e-02
      9.04520135e-03 -5.03244661e-02 -2.42473427e-02 7.63250217e-02
      1.22693181e-01 3.68574075e-02 -1.52072147e-01 -8.17438215e-02
      1.65450141e-01 1.32815823e-01 1.09930634e-01 2.60438651e-01
      -1.06330320e-01 6.13997318e-02 -1.10319652e-01 8.62738397e-03
      1.14232987e-01 1.04997993e-01 -1.67555436e-02 2.67923832e-01
      8.62997845e-02 6.16337061e-02 1.22505292e-01 2.40351930e-01
      8.57821703e-02 -1.04975022e-01 5.61016314e-02 2.33960211e-01
      -9.05068144e-02 -7.30310902e-02 -4.14722692e-03 5.93422614e-02
      -6.66769147e-02 3.19009423e-02 -8.36851075e-02 -1.29733264e-01
      1.99517794e-02 4.37807366e-02 -4.30921651e-02 4.92881052e-02
      2.83940881e-02 -2.12192580e-01 -1.62632212e-01 -1.25528947e-01
      7.46212825e-02 -8.11370760e-02 1.69422850e-01 6.57531619e-02
      4.64734957e-02 1.37454852e-01 -1.08427435e-01 -3.15545127e-02
      2.14561988e-02 7.90745467e-02 -2.37201378e-01</_>
    <_>
      -7.09686100e-01 8.23736846e-01 6.90214038e-02 -8.14189255e-01
      -1.25003057e-02 -5.44322096e-02 -2.02286303e-01 -1.48802519e-01
      -4.51448202e-01 -1.95407551e-02 -3.67491722e-01 9.74157751e-02
      -1.71940960e-02 5.11227958e-02 1.19387940e-01 1.03975452e-01
      2.02134788e-01 2.80526355e-02 1.13786561e-02 1.40640922e-02
      -4.24642824e-02 6.77490234e-02 2.18599942e-02 1.58512294e-02
      -5.72504476e-02 -5.78525439e-02 -1.91253811e-01 -2.76631508e-02
      2.34972723e-02 1.50291890e-01 1.47721902e-01 1.28507629e-01
      -7.74422660e-02 -1.68562591e-01 -1.41641036e-01 -2.27441892e-01
      3.81677557e-04 1.58553377e-01 2.39536449e-01 2.54269183e-01
      -1.02288080e-02 1.12471916e-01 -3.34372967e-02 -2.40333620e-02
      5.25573492e-02 1.70577794e-01 -3.46743502e-02 1.25331402e-01
      1.56342477e-01 3.03469989e-02 1.42688723e-02 2.67038256e-01
      1.74537092e-01 -2.28048339e-02 -3.54732573e-02 2.05427334e-01
      -1.46269381e-01 -2.27034613e-02 -1.46891743e-01 -2.58370908e-03
      -8.28679428e-02 9.45667252e-02 7.11417720e-02 -1.48224384e-01
      8.99712462e-03 6.22734763e-02 2.91927755e-02 1.53972134e-02
      -6.58733994e-02 -2.88119279e-02 -3.97068262e-02 -2.18884960e-01
      1.06003627e-01 -2.47852489e-01 1.67505220e-01 5.66867506e-03
      9.60434005e-02 3.91786844e-02 -4.92734052e-02 1.06352910e-01
      4.69564945e-02 5.90725504e-02 -8.31098780e-02</_>
    <_>
      -5.31658649e-01 2.56972283e-01 4.96875912e-01 -7.95941770e-01
      -1.47390097e-01 -3.17386627e-01 -3.11936617e-01 2.52265204e-02
      -1.28869653e-01 -4.92958911e-02 -5.52401282e-02 -5.47999367e-02
      -1.92645211e-02 -1.82254389e-01 -6.37114197e-02 8.39134902e-02
      -1.78754758e-02 -1.97130635e-01 -5.10319620e-02 1.71634659e-01
      8.25364664e-02 -1.50209010e-01 -1.33466050e-01 1.25660330e-01
      2.17325576e-02 -1.64947882e-01 1.50807935e-03 -1.05846532e-01
      7.62551203e-02 -1.53373862e-02 8.95033553e-02 6.92490712e-02
      1.01537988e-01 -1.01027623e-01 -1.28406063e-01 -4.07391563e-02
      5.85966259e-02 -9.86150205e-02 -6.44185245e-02 1.05244674e-01
      9.61503014e-03 1.24601379e-01 -9.93051454e-02 5.57578243e-02
      6.23863488e-02 -1.37706056e-01 1.43430978e-01 -8.35009962e-02
      1.05600923e-01 -1.59546491e-02 -5.31512238e-02 -2.41536230e-01
      -1.40027061e-01 -7.19169229e-02 -8.66603479e-02 -9.69887972e-02
      8.22257344e-03 5.43032326e-02 1.82943076e-01 -7.58748734e-03
      -1.07918732e-01 3.44657302e-02 -1.50682349e-02 -8.21162853e-03
      -9.58115831e-02 1.36097819e-01 -1.02136880e-01 1.57878891e-01
      -2.35851184e-02 -4.57172133e-02 -9.03302357e-02 -1.71845347e-01
      1.16586527e-02 -1.88208595e-02 9.54642370e-02 -2.41703600e-01
      -5.65745533e-02 -1.31331936e-01 1.18816219e-01 -6.14955612e-02
      8.72727484e-02 -1.50339976e-02 1.67724222e-01</_>
    <_>
      -5.81455529e-01 2.94523269e-01 4.68819529e-01 -7.02230036e-01
      2.78801434e-02 -2.22492814e-01 -3.14284235e-01 8.41796696e-02
      -1.41264006e-01 3.64223719e-02 -6.04624636e-02 -8.50621518e-03
      -1.49732213e-02 -6.99609444e-02 -2.14953180e-02 1.93605386e-02
      2.12988816e-02 -2.38192365e-01 -3.74925807e-02 -7.88137615e-02
      -7.11513683e-02 -3.45785990e-02 4.25207923e-04 3.30606364e-02
      -1.00570403e-01 -5.47281392e-02 -8.76658782e-02 -1.49266347e-01
      9.69779044e-02 -2.62095947e-02 -1.11901658e-02 1.83374897e-01
      9.14673433e-02 9.86966044e-02 -1.28555700e-01 -1.36741266e-01
      1.10995129e-01 -3.47424485e-02 -3.45198736e-02 4.03204337e-02
      6.24856949e-02 -1.31669164e-01 -1.07560150e-01 8.79888460e-02
      1.69170693e-01 -1.46383137e-01 5.75119369e-02 -5.44882156e-02
      1.75583705e-01 4.65332530e-03 -2.24893931e-02 -4.11668643e-02
      -1.91720948e-01 -1.37717411e-01 -1.50505081e-01 -8.67208093e-02
      -3.40384408e-03 1.15846477e-01 4.09723222e-02 -1.54108167e-01
      3.65346335e-02 1.13780044e-01 -5.17721660e-02 3.80847156e-02
      -1.60373002e-01 9.10239890e-02 -2.05690991e-02 1.43625364e-01
      -9.08285677e-02 -3.15128174e-03 -1.04568928e-01 -1.98158950e-01
      4.96055409e-02 6.98728040e-02 3.02639441e-03 -8.32855254e-02
      1.69828739e-02 -1.89825743e-02 -3.90683562e-02 2.24320460e-02
      4.96528260e-02 1.50202187e-02 -3.55630857e-03</_>
    <_>
      -5.49633622e-01 2.97736228e-01 6.32425606e-01 -9.22397912e-01
      -1.34554207e-01 -1.42890185e-01 -2.72871312e-02 -1.73300758e-01
      -2.01785699e-01 -9.63081047e-02 1.45747764e-02 1.29214391e-01
      -7.68765360e-02 -3.54727693e-02 -1.17071420e-02 1.31463572e-01
      -2.95088161e-02 -6.32612854e-02 6.70156861e-03 1.33714415e-02
      -1.76349923e-01 2.00443462e-01 1.37979398e-03 -1.05378799e-01
      8.06573555e-02 8.25476423e-02 -1.32527610e-03 -1.54504046e-01
      -4.40314002e-02 7.47914836e-02 2.54527573e-02 -1.88962892e-01
      -1.93304801e-03 -1.21272966e-01 3.65949087e-02 2.13920161e-01
      -8.28810327e-04 2.16550395e-01 6.00043982e-02 -9.32761207e-02
      7.06266910e-02 -1.65217116e-01 -2.51074415e-03 8.53353664e-02
      2.79976815e-01 -2.62732152e-02 7.37684295e-02 -7.69265592e-02
      -2.30508313e-01 -7.25009963e-02 -1.73408240e-01 1.89425319e-01
      1.98583808e-02 -8.25475231e-02 -1.36631886e-02 -2.68709939e-02
      -1.05947331e-01 6.81466013e-02 -1.52285725e-01 6.46939967e-03
      -5.12363650e-02 -2.44930405e-02 4.73308004e-02 1.72860280e-01
      -7.02418853e-04 -6.33058175e-02 -2.79588196e-02 -1.76738739e-01
      5.92814982e-02 5.61597236e-02 5.00638373e-02 1.95239559e-02
      1.43748805e-01 5.03518526e-03 -8.37606285e-03 -7.62922019e-02
      2.06790399e-02 1.64665386e-01 -1.74795821e-01 -1.63170531e-01
      1.75041426e-02 -1.54797018e-01 3.05125844e-02</_>
    <_>
      -5.61524451e-01 1.60902530e-01 6.03718638e-01 -8.86899769e-01
      -2.10760847e-01 -1.07833639e-01 -6.75176159e-02 -1.48282140e-01
      -1.19465947e-01 -1.99670531e-02 -5.94846793e-02 2.04714864e-01
      -1.94932725e-02 -8.63529462e-03 8.93942490e-02 1.80044949e-01
      1.31886587e-01 -1.89690486e-01 -8.40700194e-02 -1.14172762e-02
      -1.49097130e-01 1.67688310e-01 -2.51156650e-02 -2.08373629e-02
      9.46026668e-02 7.14500919e-02 9.52315480e-02 -1.13544062e-01
      -8.57209042e-02 3.49894911e-02 -2.01739930e-02 -1.58622697e-01
      5.58287315e-02 -1.82314999e-02 -1.96592137e-02 9.79139060e-02
      -3.07255220e-02 8.06452706e-02 1.84977800e-01 8.67703781e-02
      -5.14844544e-02 1.24036605e-02 -1.13581099e-01 1.14710912e-01
      1.89131841e-01 -5.11219213e-03 -1.20967533e-02 3.50775421e-02
      -1.73303083e-01 -1.02609523e-01 -2.87473470e-01 1.84728712e-01
      -1.01222850e-01 -3.04906934e-01 -2.42524907e-01 -1.13423377e-01
      7.06934035e-02 -1.43311784e-01 2.36456245e-02 1.23617582e-01
      -6.85598254e-02 -7.38666132e-02 -1.31780803e-01 6.62063994e-03
      2.07614526e-02 -1.44158289e-01 7.36831427e-02 -6.59753904e-02
      -4.87427525e-02 1.00019351e-01 -1.64281431e-04 3.94620793e-03
      1.15520798e-01 8.38114321e-03 -2.06104498e-02 1.01019643e-01
      -1.00570526e-02 6.92769960e-02 -1.39758870e-01 -1.13173254e-01
      4.57668751e-02 -1.62322015e-01 -1.44690588e-01</_>
    <_>
      -2.47392338e-02 1.43262222e-01 -1.27355352e-01 1.75090805e-01
      -2.61350602e-01 -1.63291320e-01 -4.09852087e-01 3.66081089e-01
      -2.44105592e-01 -2.06811443e-01 3.35666597e-01 2.91181773e-01
      3.50684196e-01 4.66683239e-01 -2.48807788e-01 1.92141950e-01
      -1.36920154e-01 -1.07486628e-01 -1.20169029e-01 -6.89322948e-02
      1.70163035e-01 -2.87235528e-01 -4.16718163e-02 -1.03173777e-02
      2.25453764e-01 3.06261092e-01 4.38556641e-01 -8.61788243e-02
      1.46878446e-02 -8.66500959e-02 -2.57031284e-02 4.51859273e-02
      1.58135951e-01 6.15904033e-02 1.51938990e-01 -1.93983018e-02
      -1.51593298e-01 2.78672855e-02 4.54017371e-02 7.09354430e-02
      1.64360970e-01 -7.06375763e-02 -3.62433903e-02 1.33395446e-02
      4.70516831e-02 2.47758165e-01 -1.05970375e-01 1.61512241e-01
      1.94179013e-01 1.02684371e-01 -3.10669933e-02 2.62356311e-01
      1.04321010e-01 -8.60436410e-02 7.86693767e-02 -3.39085460e-02
      5.65754063e-02 -3.34497154e-01 -2.61262078e-02 2.84406617e-02
      3.08381200e-01 -1.17990628e-01 -3.53200324e-02 -5.19520938e-02
      1.41101122e-01 3.75354700e-02 -4.88109887e-03 -1.59893811e-01
      -3.21306475e-03 -1.57224894e-01 5.30138984e-02 1.09124132e-01
      -3.62142138e-02 4.93850559e-02 4.19487283e-02 -2.88290326e-02
      -7.64855593e-02 -3.22503895e-02 -5.30015603e-02 -2.03159794e-01
      -1.04299843e-01 -8.93371031e-02 -4.14717980e-02</_>
    <_>
      -4.71453965e-02 1.78725664e-02 -1.17990814e-01 1.30685329e-01
      -2.83942014e-01 -1.19806238e-01 -2.28996620e-01 5.43015242e-01
      -3.15574616e-01 -1.91417664e-01 2.31375098e-01 2.88655490e-01
      3.12476188e-01 2.40012288e-01 -6.82839751e-02 2.77292788e-01
      -2.95828968e-01 -2.52251655e-01 -1.68273300e-01 -2.12546468e-01
      3.48742492e-02 -2.63284057e-01 1.32960394e-01 -1.06272504e-01
      3.63789320e-01 3.35022181e-01 2.49688923e-01 4.38105091e-02
      1.24685645e-01 5.74707724e-02 1.17055126e-01 -8.59988481e-02
      2.72442251e-01 7.04129087e-03 1.38366789e-01 -9.66163650e-02
      -5.71150072e-02 -8.51143897e-02 -8.00957009e-02 3.36996824e-01
      2.06102729e-01 -7.83264339e-02 -1.02186799e-01 1.45343706e-01
      1.81436390e-01 1.02817625e-01 -1.85930207e-01 3.05963248e-01
      1.10568896e-01 1.03812650e-01 -1.05362825e-01 6.14941493e-02
      4.56297882e-02 1.65624827e-01 -1.72136538e-02 -7.99260810e-02
      8.28321502e-02 -1.23238176e-01 1.19347215e-01 9.66796279e-02
      1.22066587e-01 8.75326395e-02 7.82439113e-02 4.23540138e-02
      1.48848489e-01 -3.11762486e-02 -3.27317677e-02 -2.37542853e-01
      -9.38377976e-02 -5.80886528e-02 4.80318852e-02 1.96277276e-01
      -1.21957839e-01 -3.18295322e-02 3.32947522e-02 1.39256537e-01
      7.61272535e-02 1.74747542e-01 8.92320871e-02 5.37999421e-02
      -3.64629626e-02 -4.23157364e-02 7.17342198e-02</_>
    <_>
      -1.97803617e-01 5.13251066e-01 -1.20419478e+00 4.45652783e-01
      -3.23075980e-01 -2.11827811e-02 -3.42492759e-01 3.01124513e-01
      -4.75068659e-01 -7.79868141e-02 -1.82285048e-02 2.79021859e-01
      3.17493439e-01 2.21463889e-01 -1.06681474e-01 4.73419502e-02
      6.22542948e-02 3.15759480e-02 -1.51490659e-01 -3.90593141e-01
      1.27018601e-01 -3.75792742e-01 -1.30567849e-01 1.08904712e-01
      6.48755580e-02 1.56623498e-01 4.05069619e-01 -9.61078629e-02
      2.51766235e-01 -6.55193627e-02 1.04842842e-01 9.53779519e-02
      3.02082717e-01 1.05473332e-01 8.46312940e-02 1.04856625e-01
      2.58929003e-02 4.19789553e-02 1.90991033e-02 3.18986297e-01
      -1.35476619e-01 -2.23939687e-01 -1.75501779e-02 1.21113807e-02
      1.71639338e-01 -9.94447991e-02 -2.27352023e-01 2.69837618e-01
      1.02796100e-01 1.33178562e-01 9.52262059e-02 -6.06524246e-03
      1.55797511e-01 -1.70358524e-01 2.83705480e-02 1.97025836e-02
      4.98288274e-02 -2.55949572e-02 -1.46299660e-01 5.18266633e-02
      -2.91404817e-02 -5.84523864e-02 -5.27251028e-02 2.72480082e-02
      -7.08900392e-02 9.97774303e-02 8.82541314e-02 7.38492459e-02
      6.06692061e-02 8.64117369e-02 -2.22374663e-01 1.91450566e-01
      2.20277518e-01 -5.31591810e-02 1.76177323e-01 -1.01899803e-01
      -7.71164224e-02 1.83121711e-01 8.46101791e-02 -8.28736871e-02
      7.21635148e-02 -4.30287272e-02 1.02952570e-01</_>
    <_>
      -2.58689582e-01 5.67005336e-01 -1.24423897e+00 8.01304221e-01
      -2.46697873e-01 -1.04266942e-01 -2.46496662e-01 2.36793563e-01
      -5.44103146e-01 -1.96612775e-01 2.45841548e-01 4.43096161e-01
      3.52669895e-01 5.31900451e-02 -1.47897705e-01 1.06014349e-01
      -1.51699275e-01 1.17333923e-02 -2.70898104e-01 -3.84421170e-01
      1.64874360e-01 -3.74714643e-01 -1.91346183e-01 8.18709806e-02
      1.26493815e-02 1.48974195e-01 2.73469090e-01 -1.03382617e-01
      4.19068217e-01 5.08112796e-02 6.87766001e-02 1.28100319e-02
      2.36458242e-01 -9.20242537e-03 1.06846698e-01 1.07340939e-01
      2.11711675e-01 -8.28944445e-02 -3.26191559e-02 2.52561301e-01
      -1.14181370e-01 -4.11305204e-02 6.63447008e-02 -7.29954764e-02
      3.92795473e-01 -1.09333307e-01 -1.55111670e-01 1.26417428e-01
      1.00823753e-01 1.50300771e-01 7.21035004e-02 3.58839929e-02
      2.04723433e-01 -1.03046618e-01 -2.47832071e-02 7.19351918e-02
      4.01743613e-02 -6.82508945e-02 -3.37431133e-01 -4.83889505e-02
      1.80512533e-01 -1.15810283e-01 1.33149819e-02 2.86172181e-02
      1.51927546e-02 1.03299348e-02 1.38224289e-01 -6.81189299e-02
      -1.62435621e-01 1.02191307e-01 -1.59216508e-01 8.38920823e-04
      1.48100808e-01 8.02173000e-03 3.25440615e-02 -2.12036986e-02
      -7.00851679e-02 4.60996665e-02 4.48087044e-02 -3.23607586e-02
      4.93655726e-03 -8.51685703e-02 1.26862377e-01</_>
    <_>
      7.16849938e-02 4.08961594e-01 -9.98418331e-01 5.83824515e-01
      -7.11189032e-01 -2.95526534e-01 -1.68131366e-01 3.52969289e-01
      -3.84396613e-01 -4.78587270e-01 1.97889730e-01 3.54331553e-01
      3.22889835e-01 7.29076713e-02 -7.50822425e-02 2.80788001e-02
      -4.36446927e-02 7.40550011e-02 -4.36718076e-01 8.28000158e-02
      1.31714404e-01 -1.94474310e-01 -1.05968684e-01 -6.83065131e-02
      1.71253458e-01 8.16154405e-02 2.37238035e-01 8.21276978e-02
      2.92650461e-01 -7.08301365e-02 1.88708171e-01 -1.15930878e-01
      1.71815492e-02 9.81743336e-02 -8.98860991e-02 1.12585559e-01
      6.36636987e-02 -7.71003962e-02 1.82116106e-01 2.88976043e-01
      1.09928802e-01 -1.83264371e-02 -8.13922286e-02 8.94092396e-03
      1.60548091e-01 8.39839280e-02 1.82314143e-01 1.79362521e-01
      1.07841946e-01 -1.14721201e-01 7.47793987e-02 1.81074962e-02
      1.69464320e-01 6.18293732e-02 -1.13054708e-01 1.11275136e-01
      2.65838295e-01 3.19110863e-02 -1.11623339e-01 -6.90738484e-02
      1.35670170e-01 1.34693563e-01 -6.24460764e-02 -5.91750890e-02
      6.47038668e-02 4.70276773e-02 6.78230589e-03 -1.60754398e-01
      5.14758006e-02 -3.72855142e-02 3.02936137e-02 -8.39138702e-02
      -1.57790944e-01 -1.61032334e-01 -1.30545229e-01 5.24220951e-02
      -1.88388869e-01 -5.27799539e-02 -5.21047041e-02 -1.61636606e-01
      1.61810324e-01 6.36667237e-02 5.22725238e-03</_>
    <_>
      1.63729742e-01 3.77430409e-01 -7.79095352e-01 4.74011749e-01
      -4.30344403e-01 -2.23180413e-01 -8.23511779e-02 4.05153632e-01
      -4.42082673e-01 -3.23153079e-01 -4.31872671e-03 3.14427763e-01
      4.39400613e-01 -6.47965819e-02 -3.52285624e-01 8.83461535e-02
      -2.07168937e-01 -1.57353401e-01 -2.05076098e-01 -4.64824773e-03
      5.77916056e-02 -3.28467935e-01 -1.67118862e-01 1.04336310e-02
      2.87262082e-01 2.22807229e-01 3.10686648e-01 7.50097185e-02
      2.14784056e-01 -9.68046039e-02 2.58333087e-01 -1.05940312e-01
      2.01857328e-01 1.43565461e-01 -3.89331765e-02 1.70642287e-01
      8.80563110e-02 6.44980595e-02 1.37754336e-01 2.80466676e-01
      -1.45901501e-01 -2.07016856e-04 -5.21619581e-02 -3.18383537e-02
      2.35434413e-01 3.70243341e-01 4.63926084e-02 1.86456516e-01
      6.10117130e-02 -1.93162579e-02 -1.34798139e-01 1.23163775e-01
      4.68258932e-02 -4.21058200e-02 -1.47585481e-01 -1.04405498e-02
      1.91131666e-01 2.82509290e-02 -8.44439939e-02 1.45515025e-01
      4.39127088e-02 -2.33254563e-02 6.45354390e-03 1.20900087e-02
      -7.70666525e-02 -1.38003575e-02 -4.70940061e-02 -5.37179485e-02
      -9.27981734e-02 -1.79734752e-01 -1.13066204e-01 -2.14375108e-01
      2.39880588e-02 -3.12901139e-02 -1.61535561e-01 3.50978263e-02
      -3.87329273e-02 -1.36829112e-02 1.63270593e-01 4.87135211e-03
      1.82279721e-01 -1.07774716e-02 5.18142059e-02</_>
    <_>
      -5.21553382e-02 2.06657097e-01 -5.82086027e-01 3.83729726e-01
      -4.10723269e-01 -2.01972708e-01 -2.01078206e-01 3.93720567e-01
      -2.71593630e-01 -2.76376843e-01 2.79468913e-02 2.73946255e-01
      3.36380988e-01 1.44436389e-01 -1.92378730e-01 9.34186950e-02
      -2.37868074e-02 -1.84956253e-01 -1.06997125e-01 -1.86963767e-01
      9.27611589e-02 -2.34970227e-01 -9.56921726e-02 -1.20031111e-01
      1.51374921e-01 1.08676799e-01 1.49413422e-01 3.01017296e-02
      8.93219635e-02 4.82646702e-03 9.16665867e-02 1.84138313e-01
      1.93994626e-01 1.63041148e-02 3.86250801e-02 6.80633401e-03
      2.45696492e-02 -1.07167311e-01 1.23836055e-01 2.61044681e-01
      8.07733759e-02 -5.56984656e-02 -9.39030126e-02 3.23416553e-02
      1.29809320e-01 -2.41191778e-02 7.98218027e-02 9.74648744e-02
      -6.18145019e-02 9.15708691e-02 -1.62522748e-01 6.22718409e-03
      -1.52698653e-02 -4.43876460e-02 1.57122433e-01 -2.08316575e-04
      9.18824077e-02 -1.66454129e-02 3.31310071e-02 -2.21981015e-02
      1.61062822e-01 1.26385704e-01 9.17802453e-02 2.92315781e-02
      -1.49350744e-02 -9.75363255e-02 -1.23405484e-02 2.07007956e-02
      1.06067188e-01 8.85514542e-02 -6.46879897e-02 1.11795977e-01
      1.22937471e-01 -6.69765323e-02 -1.00312248e-01 2.15763580e-02
      -6.61991686e-02 -1.73352256e-01 -2.84325153e-01 6.33427054e-02
      -2.24488489e-02 3.85519266e-02 -6.53643683e-02</_>
    <_>
      7.86179453e-02 3.51429671e-01 -6.13318026e-01 3.76087934e-01
      -2.30584174e-01 -7.01194815e-03 -1.33254245e-01 4.57321882e-01
      -1.99384302e-01 -2.49636382e-01 -3.27446759e-02 2.09668323e-01
      3.83972704e-01 1.18675726e-02 -3.15790415e-01 -1.41965300e-02
      -8.63453597e-02 -1.27834901e-01 -2.47344986e-01 5.99974804e-02
      2.54582763e-01 -2.51862437e-01 1.00972429e-01 -3.49006727e-02
      -8.75896364e-02 -6.20282888e-02 2.63768256e-01 2.75134623e-01
      1.07125215e-01 4.18193676e-02 1.25459015e-01 1.65018793e-02
      2.77139902e-01 5.74809052e-02 1.67243749e-01 1.29124746e-01
      1.88803554e-01 -2.06100903e-02 2.27598175e-01 2.86332399e-01
      -2.01700181e-01 1.34938702e-01 -2.02858090e-01 1.73435166e-01
      1.19840808e-01 -9.57369283e-02 6.76551312e-02 1.33086681e-01
      -3.14991146e-01 -2.12894417e-02 -1.13917470e-01 7.13843736e-04
      9.18001216e-03 -2.58444529e-02 -5.35441972e-02 -7.77423903e-02
      7.39580616e-02 -1.29014477e-01 5.66977134e-04 -1.38326734e-01
      1.12914860e-01 -1.73173752e-02 1.51561454e-01 1.88893303e-02
      -6.72271475e-02 -1.15937188e-01 2.99809631e-02 3.33802737e-02
      -6.00388907e-02 1.76748827e-01 1.42776608e-01 8.10867921e-02
      -2.78457124e-02 3.34717631e-02 -1.76997930e-02 -4.00415547e-02
      1.49771169e-01 -1.94142029e-01 1.27753196e-02 -9.97209772e-02
      3.23223397e-02 -9.63427797e-02 -3.69386077e-02</_>
    <_>
      -1.95164517e-01 3.96122664e-01 -6.49071932e-01 4.87925202e-01
      -3.72120738e-01 -2.05667302e-01 -7.04693049e-02 1.66428804e-01
      -2.41383672e-01 -2.12679669e-01 -1.35211751e-01 2.61777133e-01
      3.52789313e-01 -8.49958584e-02 -1.42769292e-01 -3.35925482e-02
      -1.12285940e-02 -9.83141586e-02 -1.42272130e-01 -1.11437641e-01
      2.62809217e-01 -2.59883404e-01 -9.85632762e-02 -1.55401468e-01
      2.11105436e-01 2.68268704e-01 2.01341793e-01 -5.07724797e-03
      1.40386313e-01 -1.04354858e-01 -3.38335671e-02 -1.48738965e-01
      2.84676015e-01 1.45700753e-01 6.03293851e-02 4.03209999e-02
      4.76691537e-02 -1.02597964e-03 -4.26502107e-03 2.07146227e-01
      1.51417665e-02 -1.76238611e-01 -1.41705692e-01 1.48276975e-02
      4.68204729e-02 1.59326449e-01 1.23905987e-01 1.58568338e-01
      -2.57722810e-02 -5.82335070e-02 -9.29327607e-02 -1.44405916e-01
      1.94392115e-01 1.04153298e-01 7.02675506e-02 1.19630076e-01
      1.08264655e-01 -7.48355538e-02 2.39042528e-02 9.76245627e-02
      -1.08328484e-01 3.06593045e-03 1.82370797e-01 8.27257559e-02
      3.63587365e-02 -1.54373012e-02 -3.44110578e-02 6.92796111e-02
      4.91037779e-02 9.86485705e-02 6.07447773e-02 -1.05815642e-01
      -7.74576748e-03 -1.88714460e-01 -5.10450453e-02 -8.09297338e-02
      8.41846596e-03 3.17838714e-02 -9.52940509e-02 2.42725275e-02
      8.02979693e-02 8.50873441e-03 1.45840719e-01</_>
    <_>
      -7.78484344e-02 3.88369977e-01 -9.35239196e-01 3.16420823e-01
      -1.07045822e-01 -1.24279708e-01 -2.07153887e-01 3.79101843e-01
      -3.93953383e-01 -1.85384318e-01 -1.42104074e-01 8.36711004e-02
      5.81429422e-01 2.38265455e-01 -3.11142653e-01 -4.94079106e-02
      -1.01558052e-01 -1.30321234e-01 -7.11067766e-02 -1.91871330e-01
      2.60734051e-01 -3.46242309e-01 -4.13256995e-02 2.37241939e-01
      3.10297515e-02 1.48212463e-01 6.86786845e-02 -1.91006765e-01
      1.02939792e-01 -4.66493070e-02 -1.42194889e-02 -5.89345060e-02
      2.23159432e-01 4.77753085e-04 2.25426197e-01 1.55386493e-01
      4.74199355e-02 -5.61668798e-02 7.23766461e-02 2.05553845e-01
      -1.57175094e-01 -3.96597311e-02 2.83691734e-02 6.19769283e-02
      1.80581957e-01 -2.15340778e-02 -1.41242757e-01 -6.45586550e-02
      4.79045883e-02 8.31208155e-02 -3.41867469e-02 4.46381010e-02
      -1.76432878e-02 1.24466650e-01 1.86779408e-03 -4.16163951e-02
      -5.13725430e-02 -1.18316814e-01 4.67958860e-02 -1.39686748e-01
      3.07475794e-02 -1.84406489e-01 9.75874439e-02 -7.08404034e-02
      4.33822833e-02 -2.69111454e-01 -9.26857740e-02 -9.90160406e-02
      -1.32053262e-02 9.55880657e-02 -8.79191980e-03 2.13475764e-01
      8.10844302e-02 1.32198390e-02 1.01474322e-01 -7.85973221e-02
      -1.88212514e-01 -2.04188433e-02 -1.38113350e-01 -1.40280351e-01
      -5.56540564e-02 6.33754954e-02 2.04148114e-01</_>
    <_>
      -6.65758029e-02 2.81867892e-01 -5.50872564e-01 4.12133068e-01
      -4.47046697e-01 -1.92828536e-01 -1.18028224e-01 3.60855579e-01
      -2.83281952e-01 -1.00886561e-01 2.96997260e-02 2.34157309e-01
      3.21616858e-01 1.78681865e-01 -1.66052043e-01 8.62127766e-02
      4.81925346e-02 -7.42844120e-03 -9.94006246e-02 3.06847766e-02
      4.20049988e-02 -1.45827428e-01 -4.34647575e-02 -9.57168639e-02
      2.66463637e-01 1.41574308e-01 2.82970250e-01 -1.03097722e-01
      5.64198047e-02 -7.36083463e-02 -6.56994758e-04 -5.65257855e-02
      1.88876957e-01 1.05405606e-01 -8.84313956e-02 1.84434205e-01
      -3.02683562e-02 -1.73775181e-02 1.19304284e-01 2.37232462e-01
      5.90359643e-02 -1.17966808e-01 -1.99978694e-01 1.24147005e-01
      1.30497873e-01 6.98155835e-02 -2.11041328e-03 -1.72707532e-02
      -1.30619099e-02 1.41734123e-01 -9.03597325e-02 5.81371188e-02
      1.10164098e-01 -1.66430160e-01 1.23228267e-01 1.19215667e-01
      1.51535749e-01 -2.03978837e-01 6.73455894e-02 -9.64588225e-02
      6.42875358e-02 -5.63463978e-02 3.78873758e-02 8.49041715e-03
      -6.16416261e-02 2.24609941e-01 1.59452155e-01 5.85414134e-02
      1.67501327e-02 8.51566643e-02 -7.35705495e-02 1.07893527e-01
      -1.15408711e-01 -8.52453560e-02 -2.52927989e-02 2.81568989e-02
      -1.59304947e-01 -1.34075120e-01 -1.68795377e-01 7.61811342e-03
      2.04390213e-02 1.38019368e-01 -3.96745130e-02</_>
    <_>
      -1.50321290e-01 4.97153461e-01 -7.34800041e-01 1.06507689e-01
      -4.61058468e-02 -9.16057173e-03 -3.29301953e-01 3.39029640e-01
      -5.34106731e-01 4.61467169e-02 -4.17943075e-02 1.17305584e-01
      4.62294340e-01 3.83152843e-01 -2.28746355e-01 -1.07400276e-01
      -1.50381058e-01 3.61615494e-02 -8.30752403e-02 -1.90829754e-01
      1.98036611e-01 -2.64414579e-01 4.59706634e-02 1.76774502e-01
      3.12815085e-02 2.40298688e-01 -6.14687509e-04 -1.61867023e-01
      -2.84074247e-03 -1.69563502e-01 -1.83968265e-02 -8.15321431e-02
      1.82066619e-01 3.03732813e-04 8.62975791e-02 -2.04840153e-01
      -1.01807266e-01 1.67171076e-01 -3.02073117e-02 1.96716771e-01
      -4.58224341e-02 -1.20373458e-01 -1.48689702e-01 2.18996853e-02
      1.38743952e-01 1.94548164e-02 -1.52230322e-01 1.62045255e-01
      1.24181993e-02 1.17553078e-01 2.22005229e-02 1.06366359e-01
      1.41825959e-01 2.10248791e-02 3.09515651e-02 -3.21803167e-02
      -1.84816122e-01 -1.09863110e-01 2.47340109e-02 6.89840391e-02
      7.29886815e-02 -8.63130167e-02 7.34106451e-02 1.20259590e-01
      -1.14566229e-01 -5.36441952e-02 9.03010070e-02 5.94625846e-02
      7.98246115e-02 4.13103541e-03 1.23091161e-01 -3.76524441e-02
      -6.62765056e-02 1.14487976e-01 2.82911770e-02 -2.00632840e-01
      4.46836241e-02 -4.82188575e-02 1.14540078e-01 -1.21975273e-01
      -9.30430815e-02 2.86773909e-02 -6.57830015e-02</_>
    <_>
      -1.40799910e-01 3.72507542e-01 -9.49652255e-01 3.73814583e-01
      -2.89966822e-01 -8.82929265e-02 -2.11731136e-01 3.13857228e-01
      -2.21020564e-01 -7.99285546e-02 -1.31751701e-01 1.32136568e-01
      2.21942991e-01 7.47388452e-02 -3.19819421e-01 1.34613320e-01
      -8.15788358e-02 1.94071047e-02 -1.49778768e-01 -2.53089011e-01
      1.80997655e-01 -1.95119157e-01 -9.11380872e-02 1.05291441e-01
      4.55282666e-02 3.15764427e-01 7.69286081e-02 -9.26073268e-02
      8.78615379e-02 2.26043127e-02 -4.29524668e-02 -1.01329349e-01
      1.48822680e-01 -8.58655423e-02 2.17415411e-02 -3.82696688e-02
      2.19092354e-01 1.25279054e-01 1.78935349e-01 2.73960292e-01
      1.13122322e-01 -5.15065119e-02 -3.41284461e-02 -8.34399089e-03
